{"learner":{"attributes":{},"feature_names":["grid_position","qualifying_position","best_quali_time_seconds","quali_gap_to_pole_seconds","driver_last_10_finish_mean","driver_gap_mean_last_10","driver_gap_trend_last_10","driver_consistency_index","constructor_gap_mean_last_10","constructor_gap_delta_last_5","constructor_trend_strength","driver_track_gap_mean","driver_track_finish_mean","driver_track_experience_count","driver_rain_skill","wet_race_experience","is_sprint_weekend"],"feature_types":["float","float","float","float","float","float","float","float","float","float","float","float","float","int","float","float","int"],"gradient_booster":{"model":{"cats":{"enc":[],"feature_segments":[],"sorted_idx":[]},"gbtree_model_param":{"num_parallel_tree":"1","num_trees":"500"},"iteration_indptr":[0,1,2,3,4,5,6,7,8,9,10,11,12,13,14,15,16,17,18,19,20,21,22,23,24,25,26,27,28,29,30,31,32,33,34,35,36,37,38,39,40,41,42,43,44,45,46,47,48,49,50,51,52,53,54,55,56,57,58,59,60,61,62,63,64,65,66,67,68,69,70,71,72,73,74,75,76,77,78,79,80,81,82,83,84,85,86,87,88,89,90,91,92,93,94,95,96,97,98,99,100,101,102,103,104,105,106,107,108,109,110,111,112,113,114,115,116,117,118,119,120,121,122,123,124,125,126,127,128,129,130,131,132,133,134,135,136,137,138,139,140,141,142,143,144,145,146,147,148,149,150,151,152,153,154,155,156,157,158,159,160,161,162,163,164,165,166,167,168,169,170,171,172,173,174,175,176,177,178,179,180,181,182,183,184,185,186,187,188,189,190,191,192,193,194,195,196,197,198,199,200,201,202,203,204,205,206,207,208,209,210,211,212,213,214,215,216,217,218,219,220,221,222,223,224,225,226,227,228,229,230,231,232,233,234,235,236,237,238,239,240,241,242,243,244,245,246,247,248,249,250,251,252,253,254,255,256,257,258,259,260,261,262,263,264,265,266,267,268,269,270,271,272,273,274,275,276,277,278,279,280,281,282,283,284,285,286,287,288,289,290,291,292,293,294,295,296,297,298,299,300,301,302,303,304,305,306,307,308,309,310,311,312,313,314,315,316,317,318,319,320,321,322,323,324,325,326,327,328,329,330,331,332,333,334,335,336,337,338,339,340,341,342,343,344,345,346,347,348,349,350,351,352,353,354,355,356,357,358,359,360,361,362,363,364,365,366,367,368,369,370,371,372,373,374,375,376,377,378,379,380,381,382,383,384,385,386,387,388,389,390,391,392,393,394,395,396,397,398,399,400,401,402,403,404,405,406,407,408,409,410,411,412,413,414,415,416,417,418,419,420,421,422,423,424,425,426,427,428,429,430,431,432,433,434,435,436,437,438,439,440,441,442,443,444,445,446,447,448,449,450,451,452,453,454,455,456,457,458,459,460,461,462,463,464,465,466,467,468,469,470,471,472,473,474,475,476,477,478,479,480,481,482,483,484,485,486,487,488,489,490,491,492,493,494,495,496,497,498,499,500],"tree_info":[0,0,0,0,0,0,0,0,0,0,0,0,0,0,0,0,0,0,0,0,0,0,0,0,0,0,0,0,0,0,0,0,0,0,0,0,0,0,0,0,0,0,0,0,0,0,0,0,0,0,0,0,0,0,0,0,0,0,0,0,0,0,0,0,0,0,0,0,0,0,0,0,0,0,0,0,0,0,0,0,0,0,0,0,0,0,0,0,0,0,0,0,0,0,0,0,0,0,0,0,0,0,0,0,0,0,0,0,0,0,0,0,0,0,0,0,0,0,0,0,0,0,0,0,0,0,0,0,0,0,0,0,0,0,0,0,0,0,0,0,0,0,0,0,0,0,0,0,0,0,0,0,0,0,0,0,0,0,0,0,0,0,0,0,0,0,0,0,0,0,0,0,0,0,0,0,0,0,0,0,0,0,0,0,0,0,0,0,0,0,0,0,0,0,0,0,0,0,0,0,0,0,0,0,0,0,0,0,0,0,0,0,0,0,0,0,0,0,0,0,0,0,0,0,0,0,0,0,0,0,0,0,0,0,0,0,0,0,0,0,0,0,0,0,0,0,0,0,0,0,0,0,0,0,0,0,0,0,0,0,0,0,0,0,0,0,0,0,0,0,0,0,0,0,0,0,0,0,0,0,0,0,0,0,0,0,0,0,0,0,0,0,0,0,0,0,0,0,0,0,0,0,0,0,0,0,0,0,0,0,0,0,0,0,0,0,0,0,0,0,0,0,0,0,0,0,0,0,0,0,0,0,0,0,0,0,0,0,0,0,0,0,0,0,0,0,0,0,0,0,0,0,0,0,0,0,0,0,0,0,0,0,0,0,0,0,0,0,0,0,0,0,0,0,0,0,0,0,0,0,0,0,0,0,0,0,0,0,0,0,0,0,0,0,0,0,0,0,0,0,0,0,0,0,0,0,0,0,0,0,0,0,0,0,0,0,0,0,0,0,0,0,0,0,0,0,0,0,0,0,0,0,0,0,0,0,0,0,0,0,0,0,0,0,0,0,0,0,0,0,0,0,0,0,0,0,0,0,0,0,0,0,0,0,0,0,0,0,0,0,0,0,0,0,0,0,0,0,0,0,0,0,0,0,0,0,0,0,0,0,0,0,0,0,0,0,0,0,0,0],"trees":[{"base_weights":[3.665866E-3,-4.789384E-1,2.6312035E-1,-3.0534527E-1,-6.381717E-1,4.8095178E-2,3.9909628E-1,-4.1115516E-1,-5.284759E-2,-5.690222E-1,-7.713979E-1,-2.556044E-1,1.5673761E-1,5.833401E-2,4.2445645E-1,8.492204E-3,-4.3492788E-1,-2.3147581E-2,1.830376E-2,-2.6049265E-1,-6.1230826E-1,-1.5839273E-1,-8.242314E-1,-4.5940477E-2,-4.1487393E-1,7.754344E-2,2.3865154E-1,-2.077709E-2,2.077603E-1,3.576964E-1,5.2652556E-1,-6.1032325E-1,-3.0137944E-1,1.7451607E-1,-1.9501223E-1,2.0610558E-2,-4.5290226E-1,-6.3490415E-1,-1.47421E-1,-2.2865368E-2,1.0732724E-2,-9.92864E-3,-4.2962193E-2,2.7516198E-1,-1.837732E-1,7.3104344E-2,-4.916072E-1,1.3962464E-1,-6.376472E-2,2.6958618E-1,1.8978393E-2,3.5336596E-1,-1.911013E-1,2.580835E-1,4.2075863E-1,1.7177898E-1,5.456001E-1,-3.3034768E-2,2.3781417E-3,-1.7012678E-2,1.0678686E-2,1.44454315E-2,-1.0101069E-2,9.009061E-3,-1.8071493E-2,-2.8151289E-2,4.199762E-3,-3.2280665E-2,-5.133041E-3,-1.5854275E-2,6.066322E-3,-3.1708553E-3,2.2532703E-2,-1.4805779E-2,1.1367634E-2,-4.1997614E-3,9.799444E-3,-2.6887143E-2,2.3332012E-3,2.0217742E-3,1.6000772E-2,9.512565E-3,-5.3756996E-3,1.4946043E-2,5.1221775E-4,-5.7330388E-3,7.3710503E-3,2.1333799E-2,3.1002641E-3,-1.4268847E-2,4.6664017E-4,1.424276E-2,-5.7330388E-3,2.1484893E-2,4.380603E-3,1.173908E-2,-7.629791E-4,1.3801458E-2,2.860175E-2],"categories":[],"categories_nodes":[],"categories_segments":[],"categories_sizes":[],"default_left":[0,0,0,0,1,0,0,0,0,0,0,1,0,1,0,0,0,0,1,0,1,0,0,0,0,0,0,0,0,0,0,0,0,1,0,0,0,1,0,0,0,0,0,0,0,0,1,0,0,0,0,0,0,0,1,1,0,0,0,0,0,0,0,0,0,0,0,0,0,0,0,0,0,0,0,0,0,0,0,0,0,0,0,0,0,0,0,0,0,0,0,0,0,0,0,0,0,0,0],"id":0,"left_children":[1,3,5,7,9,11,13,15,17,19,21,23,25,27,29,-1,31,-1,33,35,37,39,41,43,45,47,49,-1,51,53,55,57,59,61,63,-1,65,67,69,-1,-1,-1,-1,71,73,75,77,79,81,83,85,87,89,91,93,95,97,-1,-1,-1,-1,-1,-1,-1,-1,-1,-1,-1,-1,-1,-1,-1,-1,-1,-1,-1,-1,-1,-1,-1,-1,-1,-1,-1,-1,-1,-1,-1,-1,-1,-1,-1,-1,-1,-1,-1,-1,-1,-1],"loss_changes":[5.7823486E1,4.2683563E0,8.761784E0,2.093367E0,3.2845306E-1,3.9163194E0,1.5639782E0,8.4238434E-1,7.2412854E-1,6.237488E-1,7.001991E-1,1.0272689E0,5.4682994E-1,1.0701331E0,9.765396E-1,0E0,1.0747395E0,0E0,7.625277E-1,1.3459473E0,4.388981E-1,4.631585E-1,3.4148026E-1,6.990134E-1,6.980386E-1,4.1060594E-1,2.8272033E-1,0E0,7.1970046E-1,5.60235E-1,3.493557E-1,7.688608E-1,7.2291136E-1,6.246844E-1,6.7165613E-1,0E0,4.8722982E-1,2.0754242E-1,2.049953E-1,0E0,0E0,0E0,0E0,3.1382677E-1,5.684804E-1,7.965217E-2,4.0775537E-1,5.6190914E-1,1.8340859E-1,2.7882385E-1,1.2511477E-1,1.5675473E-1,7.167366E-2,4.703443E-1,1.5178776E-1,6.0153708E-2,2.8163338E-1,0E0,0E0,0E0,0E0,0E0,0E0,0E0,0E0,0E0,0E0,0E0,0E0,0E0,0E0,0E0,0E0,0E0,0E0,0E0,0E0,0E0,0E0,0E0,0E0,0E0,0E0,0E0,0E0,0E0,0E0,0E0,0E0,0E0,0E0,0E0,0E0,0E0,0E0,0E0,0E0,0E0,0E0],"parents":[2147483647,0,0,1,1,2,2,3,3,4,4,5,5,6,6,7,7,8,8,9,9,10,10,11,11,12,12,13,13,14,14,16,16,18,18,19,19,20,20,21,21,22,22,23,23,24,24,25,25,26,26,28,28,29,29,30,30,31,31,32,32,33,33,34,34,36,36,37,37,38,38,43,43,44,44,45,45,46,46,47,47,48,48,49,49,50,50,51,51,52,52,53,53,54,54,55,55,56,56],"right_children":[2,4,6,8,10,12,14,16,18,20,22,24,26,28,30,-1,32,-1,34,36,38,40,42,44,46,48,50,-1,52,54,56,58,60,62,64,-1,66,68,70,-1,-1,-1,-1,72,74,76,78,80,82,84,86,88,90,92,94,96,98,-1,-1,-1,-1,-1,-1,-1,-1,-1,-1,-1,-1,-1,-1,-1,-1,-1,-1,-1,-1,-1,-1,-1,-1,-1,-1,-1,-1,-1,-1,-1,-1,-1,-1,-1,-1,-1,-1,-1,-1,-1,-1],"split_conditions":[8E0,4.4523797E0,1.3E1,1.11E1,3.0671726E1,8.6E0,8.1E0,1.8708287E0,2.97E-1,-4.400278E1,9.551971E0,1.5062494E-2,1.3E1,1.157E0,1.8E1,8.492204E-3,5E0,-2.3147581E-2,-1.696593E-1,1.7879574E0,5.8208664E1,5E0,4.532781E-2,5.7E0,9.430743E0,1.285E0,1.248E1,-2.077709E-2,7.6E0,9.832891E0,6.166584E-1,9.5153576E-1,1.05367E2,2.8494412E-2,6.9493365E-1,2.0610558E-2,1.1299359E1,1.9272693E0,6.7568893E0,-2.2865368E-2,1.0732724E-2,-9.92864E-3,-4.2962193E-2,9E0,1.542E0,5.494635E-1,5.993397E0,1.1E1,8.9E0,1.0941868E1,1E1,1.1854556E1,1.9E1,1.03574E2,1.2597413E0,2.5085324E-1,4E0,-3.3034768E-2,2.3781417E-3,-1.7012678E-2,1.0678686E-2,1.44454315E-2,-1.0101069E-2,9.009061E-3,-1.8071493E-2,-2.8151289E-2,4.199762E-3,-3.2280665E-2,-5.133041E-3,-1.5854275E-2,6.066322E-3,-3.1708553E-3,2.2532703E-2,-1.4805779E-2,1.1367634E-2,-4.1997614E-3,9.799444E-3,-2.6887143E-2,2.3332012E-3,2.0217742E-3,1.6000772E-2,9.512565E-3,-5.3756996E-3,1.4946043E-2,5.1221775E-4,-5.7330388E-3,7.3710503E-3,2.1333799E-2,3.1002641E-3,-1.4268847E-2,4.6664017E-4,1.424276E-2,-5.7330388E-3,2.1484893E-2,4.380603E-3,1.173908E-2,-7.629791E-4,1.3801458E-2,2.860175E-2],"split_indices":[1,8,1,4,8,4,4,7,3,9,12,10,4,3,1,0,1,0,9,11,9,0,10,4,12,3,12,0,4,12,8,8,2,10,8,0,11,14,7,0,0,0,0,1,3,8,6,1,4,11,0,11,0,2,9,9,15,0,0,0,0,0,0,0,0,0,0,0,0,0,0,0,0,0,0,0,0,0,0,0,0,0,0,0,0,0,0,0,0,0,0,0,0,0,0,0,0,0,0],"split_type":[0,0,0,0,0,0,0,0,0,0,0,0,0,0,0,0,0,0,0,0,0,0,0,0,0,0,0,0,0,0,0,0,0,0,0,0,0,0,0,0,0,0,0,0,0,0,0,0,0,0,0,0,0,0,0,0,0,0,0,0,0,0,0,0,0,0,0,0,0,0,0,0,0,0,0,0,0,0,0,0,0,0,0,0,0,0,0,0,0,0,0,0,0,0,0,0,0,0,0],"sum_hessian":[4.597914E2,1.6046635E2,2.9932507E2,7.8167366E1,8.2298996E1,1.16481316E2,1.8284373E2,5.464138E1,2.3525984E1,5.764838E1,2.4650612E1,3.0333685E1,8.614763E1,1.2893614E1,1.6995013E2,1.9063418E0,5.273504E1,2.6640847E0,2.0861898E1,7.9563003E0,4.969208E1,2.2732286E0,2.2377384E1,1.3651357E1,1.6682327E1,4.479072E1,4.135691E1,2.6640847E0,1.0229528E1,1.0547008E2,6.448005E1,2.1252754E1,3.1482283E1,1.2147856E1,8.714043E0,1.5154858E0,6.4408145E0,4.703998E1,2.6521E0,1.1366143E0,1.1366143E0,1.5394549E0,2.0837929E1,3.800699E0,9.850657E0,2.2732286E0,1.44091E1,3.112738E1,1.36633415E1,3.605271E1,5.3042E0,7.577429E0,2.6521E0,4.2860413E1,6.2609665E1,3.800699E0,6.067935E1,1.9737268E1,1.5154858E0,2.9587927E1,1.8943572E0,9.495755E0,2.6521E0,2.6521E0,6.061943E0,5.3042E0,1.1366143E0,4.5903366E1,1.1366143E0,1.5154858E0,1.1366143E0,1.5154858E0,2.2852132E0,7.9563003E0,1.8943572E0,1.1366143E0,1.1366143E0,1.3272485E1,1.1366143E0,2.0873882E1,1.0253498E1,1.5154858E0,1.2147856E1,3.225201E1,3.800699E0,2.6521E0,2.6521E0,5.6830716E0,1.8943572E0,1.5154858E0,1.1366143E0,4.0208313E1,2.6521E0,6.0691338E1,1.9183264E0,2.6521E0,1.1485989E0,6.4408145E0,5.423854E1],"tree_param":{"num_deleted":"0","num_feature":"17","num_nodes":"99","size_leaf_vector":"1"}},{"base_weights":[-1.1522998E-3,-2.9754055E-1,1.0814201E-1,-5.151034E-1,-2.0323323E-1,3.249228E-2,2.4645923E-1,-6.0012925E-1,-2.1310626E-1,-1.3202305E-1,-3.1975245E-1,-2.2723107E-1,5.151597E-2,2.0277998E-1,4.2738333E-1,-7.074957E-1,-2.8261587E-1,2.2289095E-2,-3.4822038E-1,2.6625086E-2,-1.4822204E-1,1.05474494E-1,-3.8154206E-1,-2.6344603E-1,1.3562636E-2,2.2742043E-1,3.0562663E-2,2.2916476E-1,-9.743778E-2,5.1175064E-1,1.8830402E-1,-7.319827E-1,-6.0672644E-3,-4.5560795E-1,-1.0677191E-2,-5.8620644E-1,-2.2518758E-2,-3.5061288E-1,-8.657534E-2,3.9075822E-1,-9.173876E-2,8.548864E-3,-4.052981E-1,6.973265E-3,-2.9390958E-1,5.2051854E-1,1.6733699E-1,-2.5785434E-1,4.568282E-2,1.3372764E-1,3.0637658E-1,3.620166E-1,-2.390288E-1,2.1268368E-1,5.669972E-1,2.9513055E-2,4.0122104E-1,-3.7312385E-2,-7.702404E-3,1.2213823E-2,-3.0782292E-2,1.4090425E-2,-1.6137317E-2,-3.3604033E-2,-5.2169254E-3,1.4285751E-2,-2.0398503E-2,1.6218595E-3,-2.2484368E-2,-6.5155323E-3,2.3039503E-2,6.3415463E-3,2.344207E-2,6.1224317E-3,-9.077658E-3,-2.94996E-2,-1.569424E-2,-2.2913737E-2,-1.00078825E-2,3.3406377E-2,7.7398308E-3,-8.554424E-3,1.1243795E-2,3.581165E-3,-1.5186125E-2,-8.751836E-3,3.0489422E-3,1.9516114E-2,1.9235354E-3,1.6244685E-2,-3.2364805E-3,5.368923E-3,2.2895707E-2,-2.2071406E-2,-4.3761986E-3,1.98852E-2,1.3026648E-4,1.1173231E-2,3.0774264E-2,1.3567264E-2,-6.786719E-3,8.953641E-3,2.445263E-2],"categories":[],"categories_nodes":[],"categories_segments":[],"categories_sizes":[],"default_left":[0,0,0,0,0,0,0,0,1,0,0,1,0,0,1,1,1,0,0,0,0,0,0,0,0,0,0,0,0,0,1,1,0,0,0,0,0,0,0,0,0,0,0,0,0,0,0,0,0,0,0,0,0,0,0,0,0,0,0,0,0,0,0,0,0,0,0,0,0,0,0,0,0,0,0,0,0,0,0,0,0,0,0,0,0,0,0,0,0,0,0,0,0,0,0,0,0,0,0,0,0,0,0],"id":1,"left_children":[1,3,5,7,9,11,13,15,17,19,21,23,25,27,29,31,33,-1,35,-1,37,39,41,43,-1,45,47,49,51,53,55,57,-1,59,61,63,65,67,69,71,73,-1,75,-1,77,79,81,83,85,87,89,91,93,95,97,99,101,-1,-1,-1,-1,-1,-1,-1,-1,-1,-1,-1,-1,-1,-1,-1,-1,-1,-1,-1,-1,-1,-1,-1,-1,-1,-1,-1,-1,-1,-1,-1,-1,-1,-1,-1,-1,-1,-1,-1,-1,-1,-1,-1,-1,-1,-1],"loss_changes":[2.5426786E1,4.2341385E0,5.992626E0,1.4973526E0,1.1955214E0,1.8490736E0,1.5144415E0,1.4649677E0,1.5311928E0,1.093937E0,1.508503E0,5.3295314E-1,1.273141E0,1.3301649E0,6.801615E-1,4.2547607E-1,6.540499E-1,0E0,1.0244758E0,0E0,1.1278539E0,4.7881323E-1,7.1256113E-1,3.397386E-1,0E0,5.6116176E-1,1.3701767E0,1.079586E0,9.998905E-1,3.3995867E-1,3.8115764E-1,1.6696358E-1,0E0,1.106569E0,6.8149275E-1,2.483058E-1,9.116297E-1,8.246646E-1,1.7952496E0,1.0774076E-2,1.2736323E-1,0E0,6.131363E-1,0E0,2.619307E-1,2.090671E-1,6.620444E-1,2.585218E-1,1.0127996E0,1.6906105E0,5.933485E-1,4.130599E-2,3.0893838E-1,2.300998E-1,2.4437189E-1,3.4604624E-1,7.7634454E-3,0E0,0E0,0E0,0E0,0E0,0E0,0E0,0E0,0E0,0E0,0E0,0E0,0E0,0E0,0E0,0E0,0E0,0E0,0E0,0E0,0E0,0E0,0E0,0E0,0E0,0E0,0E0,0E0,0E0,0E0,0E0,0E0,0E0,0E0,0E0,0E0,0E0,0E0,0E0,0E0,0E0,0E0,0E0,0E0,0E0,0E0],"parents":[2147483647,0,0,1,1,2,2,3,3,4,4,5,5,6,6,7,7,8,8,9,9,10,10,11,11,12,12,13,13,14,14,15,15,16,16,18,18,20,20,21,21,22,22,23,23,25,25,26,26,27,27,28,28,29,29,30,30,31,31,33,33,34,34,35,35,36,36,37,37,38,38,39,39,40,40,42,42,44,44,45,45,46,46,47,47,48,48,49,49,50,50,51,51,52,52,53,53,54,54,55,55,56,56],"right_children":[2,4,6,8,10,12,14,16,18,20,22,24,26,28,30,32,34,-1,36,-1,38,40,42,44,-1,46,48,50,52,54,56,58,-1,60,62,64,66,68,70,72,74,-1,76,-1,78,80,82,84,86,88,90,92,94,96,98,100,102,-1,-1,-1,-1,-1,-1,-1,-1,-1,-1,-1,-1,-1,-1,-1,-1,-1,-1,-1,-1,-1,-1,-1,-1,-1,-1,-1,-1,-1,-1,-1,-1,-1,-1,-1,-1,-1,-1,-1,-1,-1,-1,-1,-1,-1,-1],"split_conditions":[7E0,3E0,1.6E1,9.0681E1,5.4262733E0,5.71E-1,2E1,1.86E-1,-5.3382694E1,2.7176875E-1,7.1512E1,9.0205956E1,6E0,5.4262733E0,2.5085324E-1,4.972146E0,-7.946825E-2,2.2289095E-2,6.2535E-2,2.6625086E-2,4.9758843E-1,4E0,6.7E-2,5E0,1.3562636E-2,7.241769E-1,9E0,1E0,9.398105E0,6E0,2.939E0,1.5E1,-6.0672644E-3,1.1E1,2.92E-1,1.7583403E1,2.0695974E1,2.97E-1,5.1897335E0,-7.946825E-2,-2.8092983E-1,8.548864E-3,3.19E-1,6.973265E-3,7.202E1,6.9376326E-1,7.711077E-1,7.22E-1,4.5039696E-1,7.2926784E-1,1.2431159E0,9.985129E-1,1.7E1,-6.521479E-1,-9.605849E-1,9.390445E0,8.059013E-1,-3.7312385E-2,-7.702404E-3,1.2213823E-2,-3.0782292E-2,1.4090425E-2,-1.6137317E-2,-3.3604033E-2,-5.2169254E-3,1.4285751E-2,-2.0398503E-2,1.6218595E-3,-2.2484368E-2,-6.5155323E-3,2.3039503E-2,6.3415463E-3,2.344207E-2,6.1224317E-3,-9.077658E-3,-2.94996E-2,-1.569424E-2,-2.2913737E-2,-1.00078825E-2,3.3406377E-2,7.7398308E-3,-8.554424E-3,1.1243795E-2,3.581165E-3,-1.5186125E-2,-8.751836E-3,3.0489422E-3,1.9516114E-2,1.9235354E-3,1.6244685E-2,-3.2364805E-3,5.368923E-3,2.2895707E-2,-2.2071406E-2,-4.3761986E-3,1.98852E-2,1.3026648E-4,1.1173231E-2,3.0774264E-2,1.3567264E-2,-6.786719E-3,8.953641E-3,2.445263E-2],"split_indices":[1,0,1,2,7,3,1,3,9,5,2,9,15,7,9,6,9,0,9,0,8,1,3,15,0,11,15,13,12,15,3,15,0,15,3,5,5,3,7,9,9,0,3,0,2,8,11,3,5,11,5,8,1,9,9,12,8,0,0,0,0,0,0,0,0,0,0,0,0,0,0,0,0,0,0,0,0,0,0,0,0,0,0,0,0,0,0,0,0,0,0,0,0,0,0,0,0,0,0,0,0,0,0],"split_type":[0,0,0,0,0,0,0,0,0,0,0,0,0,0,0,0,0,0,0,0,0,0,0,0,0,0,0,0,0,0,0,0,0,0,0,0,0,0,0,0,0,0,0,0,0,0,0,0,0,0,0,0,0,0,0,0,0,0,0,0,0,0,0,0,0,0,0,0,0,0,0,0,0,0,0,0,0,0,0,0,0,0,0,0,0,0,0,0,0,0,0,0,0,0,0,0,0,0,0,0,0,0,0],"sum_hessian":[7.829403E2,2.1046672E2,5.7247363E2,6.2294365E1,1.4817236E2,3.7086926E2,2.0160434E2,4.7838474E1,1.4455893E1,9.329103E1,5.488133E1,2.456383E1,3.4630545E2,1.6410614E2,3.7498207E1,3.48319E1,1.3006571E1,2.0686686E0,1.2387223E1,1.4615594E0,9.1829475E1,6.8733006E0,4.8008026E1,2.33397E1,1.2241291E0,3.5811527E1,3.104939E2,1.5106627E2,1.3039867E1,2.6874216E1,1.0623991E1,3.3196297E1,1.6356056E0,7.536724E0,5.4698462E0,6.695257E0,5.691966E0,2.034566E1,7.148381E1,2.4082243E0,4.4650764E0,1.723587E0,4.628444E1,1.3891171E0,2.1950583E1,4.788599E0,3.1022928E1,1.4667012E1,2.958269E2,6.878142E1,8.228485E1,2.7051244E0,1.0334743E1,4.9465737E0,2.1927643E1,6.7377048E0,3.8862865E0,3.2112446E1,1.0838515E0,1.3046789E0,6.232045E0,2.8735704E0,2.5962758E0,5.3475285E0,1.3477291E0,3.306561E0,2.3854053E0,4.3191595E0,1.60265E1,6.690031E1,4.583502E0,1.1489587E0,1.2592657E0,1.2118149E0,3.2532613E0,1.351807E1,3.2766373E1,6.560539E0,1.5390044E1,2.8225262E0,1.9660728E0,4.2212787E0,2.6801651E1,1.7237275E0,1.2943285E1,1.8495531E1,2.7733136E2,1.7782618E1,5.0998802E1,7.849281E1,3.7920322E0,1.3199536E0,1.3851707E0,3.6050441E0,6.7296987E0,2.1552656E0,2.7913084E0,3.4058952E0,1.8521748E1,2.4744313E0,4.2632737E0,1.9622021E0,1.9240844E0],"tree_param":{"num_deleted":"0","num_feature":"17","num_nodes":"103","size_leaf_vector":"1"}},{"base_weights":[-8.2928505E-5,-2.3618443E-1,1.2606868E-1,-2.9855767E-1,4.8514284E-2,4.0515028E-2,2.1999314E-1,-2.5253662E-1,-7.1189827E-1,1.2787597E-1,-3.7443453E-1,1.4442058E-1,-2.477796E-2,2.39848E-1,-1.8153423E-2,7.9282574E-2,-2.7331236E-1,-7.741509E-1,-1.9350292E-1,2.459436E-2,3.855E-2,-5.4204786E-1,5.779502E-3,1.8810703E-1,-1.4275831E-1,-1.7936482E-1,5.7011146E-2,3.0550855E-1,1.5846427E-1,1.8991035E-1,-2.3547953E-1,-1.8081874E-2,2.3048326E-1,-2.5053656E-1,-5.080836E-1,-1.0121024E-2,-4.0110707E-2,1.6912384E-2,-2.9224267E-2,-2.0731927E-1,1.8384615E-1,-5.856294E-3,-3.0509442E-2,3.168542E-1,1.3030702E-1,1.2373895E-2,-2.475544E-1,-2.5868234E-1,2.6164234E-1,-8.029787E-2,1.3802749E-1,1.9892178E-1,3.7721798E-1,3.5121912E-1,4.883392E-2,6.6399395E-2,2.7971113E-2,-3.904031E-1,3.1451114E-2,2.4972675E-2,-7.802357E-4,-1.3067432E-2,2.017733E-2,3.0677815E-3,-2.9700069E-2,3.0146474E-2,-1.8115854E-2,2.5530314E-2,5.765064E-4,1.0695503E-2,2.914822E-2,8.214901E-3,-1.3048585E-2,-1.8082788E-2,1.0113168E-2,3.958197E-3,-1.5098427E-2,2.9819949E-2,3.7881546E-3,1.97881E-3,-1.9474935E-2,2.6320207E-3,1.8017E-2,-8.524232E-3,1.14731835E-2,-2.9185899E-3,2.0708399E-2,1.3693908E-2,2.8493924E-2,-1.2520942E-2,4.5711207E-3,1.235545E-2,-1.0651164E-2,-2.360222E-2,-2.4120554E-3,-5.406998E-3,8.122667E-3],"categories":[],"categories_nodes":[],"categories_segments":[],"categories_sizes":[],"default_left":[0,1,0,0,1,0,1,0,1,0,0,0,0,0,0,0,0,0,0,0,0,0,0,1,0,0,0,0,0,0,0,0,0,0,0,0,0,0,0,0,0,0,0,0,0,0,0,0,0,0,0,0,1,1,0,0,0,0,0,0,0,0,0,0,0,0,0,0,0,0,0,0,0,0,0,0,0,0,0,0,0,0,0,0,0,0,0,0,0,0,0,0,0,0,0,0,0],"id":2,"left_children":[1,3,5,7,9,11,13,15,17,19,21,23,25,27,29,31,33,35,37,-1,39,41,-1,43,45,47,49,51,53,55,57,-1,59,61,63,-1,-1,-1,-1,65,67,-1,-1,69,71,-1,73,75,77,79,81,83,85,87,89,91,-1,93,95,-1,-1,-1,-1,-1,-1,-1,-1,-1,-1,-1,-1,-1,-1,-1,-1,-1,-1,-1,-1,-1,-1,-1,-1,-1,-1,-1,-1,-1,-1,-1,-1,-1,-1,-1,-1,-1,-1],"loss_changes":[2.281835E1,4.7520685E0,4.00342E0,3.9858494E0,1.686105E0,1.7846634E0,1.1287155E0,1.3907528E0,5.404644E-1,1.34151E0,7.169088E-1,1.2996998E0,2.0594184E0,1.1248579E0,9.142171E-1,9.1515636E-1,8.732538E-1,1.3865852E-1,9.5165867E-1,0E0,1.2770638E0,1.0547781E-1,0E0,6.172273E-1,6.3234305E-1,2.0377693E0,1.1986383E0,8.455334E-1,2.0985565E0,4.3646988E-1,4.1968268E-1,0E0,6.63187E-1,1.3257027E0,7.9844666E-1,0E0,0E0,0E0,0E0,1.8953056E0,1.251376E0,0E0,0E0,6.0727096E-1,8.7773633E-1,0E0,6.6380346E-1,7.293477E-1,5.199766E-1,1.5071529E0,1.2624927E0,6.095164E-1,1.1650763E0,4.5504904E-1,8.5107946E-1,5.026665E-1,0E0,1.5344614E-1,1.0065189E-1,0E0,0E0,0E0,0E0,0E0,0E0,0E0,0E0,0E0,0E0,0E0,0E0,0E0,0E0,0E0,0E0,0E0,0E0,0E0,0E0,0E0,0E0,0E0,0E0,0E0,0E0,0E0,0E0,0E0,0E0,0E0,0E0,0E0,0E0,0E0,0E0,0E0,0E0],"parents":[2147483647,0,0,1,1,2,2,3,3,4,4,5,5,6,6,7,7,8,8,9,9,10,10,11,11,12,12,13,13,14,14,15,15,16,16,17,17,18,18,20,20,21,21,23,23,24,24,25,25,26,26,27,27,28,28,29,29,30,30,32,32,33,33,34,34,39,39,40,40,43,43,44,44,46,46,47,47,48,48,49,49,50,50,51,51,52,52,53,53,54,54,55,55,57,57,58,58],"right_children":[2,4,6,8,10,12,14,16,18,20,22,24,26,28,30,32,34,36,38,-1,40,42,-1,44,46,48,50,52,54,56,58,-1,60,62,64,-1,-1,-1,-1,66,68,-1,-1,70,72,-1,74,76,78,80,82,84,86,88,90,92,-1,94,96,-1,-1,-1,-1,-1,-1,-1,-1,-1,-1,-1,-1,-1,-1,-1,-1,-1,-1,-1,-1,-1,-1,-1,-1,-1,-1,-1,-1,-1,-1,-1,-1,-1,-1,-1,-1,-1,-1],"split_conditions":[9.8E0,1.533E0,1.4E1,3.2489983E1,-2.0314688E-2,3.559026E0,4.954235E0,-7.697536E-2,4.972146E0,1.5E1,1.850149E1,9.6827E1,9.29E-1,8.338095E-1,8.846E1,2.25E-1,4.3036533E1,3E0,7.6075E1,2.459436E-2,6.41871E-1,1.1E1,5.779502E-3,-7.849322E-1,9.511451E0,9.0389E1,8.9523E-1,8.9523E-1,7.863906E-1,1.8E1,9.794118E0,-1.8081874E-2,6.9151396E-1,4.0575638E1,3.9219177E-1,-1.0121024E-2,-4.0110707E-2,1.6912384E-2,-2.9224267E-2,5E0,1.845E0,-5.856294E-3,-3.0509442E-2,9.1311E1,1.0637013E1,1.2373895E-2,1.51E1,1.1293906E0,8.727864E-1,1.166923E1,2E0,5.001173E-1,1.007E0,3.0835608E-1,5E0,1.755E0,2.7971113E-2,1.178451E1,3.084E0,2.4972675E-2,-7.802357E-4,-1.3067432E-2,2.017733E-2,3.0677815E-3,-2.9700069E-2,3.0146474E-2,-1.8115854E-2,2.5530314E-2,5.765064E-4,1.0695503E-2,2.914822E-2,8.214901E-3,-1.3048585E-2,-1.8082788E-2,1.0113168E-2,3.958197E-3,-1.5098427E-2,2.9819949E-2,3.7881546E-3,1.97881E-3,-1.9474935E-2,2.6320207E-3,1.8017E-2,-8.524232E-3,1.14731835E-2,-2.9185899E-3,2.0708399E-2,1.3693908E-2,2.8493924E-2,-1.2520942E-2,4.5711207E-3,1.235545E-2,-1.0651164E-2,-2.360222E-2,-2.4120554E-3,-5.406998E-3,8.122667E-3],"split_indices":[4,3,0,5,6,7,7,14,6,15,8,2,3,8,2,3,8,15,2,0,5,0,0,9,12,2,11,11,11,0,12,0,5,8,5,0,0,0,0,4,3,0,0,2,11,0,4,14,8,12,13,5,3,9,15,3,0,11,3,0,0,0,0,0,0,0,0,0,0,0,0,0,0,0,0,0,0,0,0,0,0,0,0,0,0,0,0,0,0,0,0,0,0,0,0,0,0],"split_type":[0,0,0,0,0,0,0,0,0,0,0,0,0,0,0,0,0,0,0,0,0,0,0,0,0,0,0,0,0,0,0,0,0,0,0,0,0,0,0,0,0,0,0,0,0,0,0,0,0,0,0,0,0,0,0,0,0,0,0,0,0,0,0,0,0,0,0,0,0,0,0,0,0,0,0,0,0,0,0,0,0,0,0,0,0,0,0,0,0,0,0,0,0,0,0,0,0],"sum_hessian":[7.6411304E2,2.657922E2,4.9832083E2,2.1798604E2,4.7806156E1,2.6153024E2,2.3679057E2,1.9759674E2,2.0389305E1,4.0840538E1,6.965621E0,1.00455734E2,1.6107451E2,2.1856143E2,1.8229136E1,1.1476935E1,1.8611981E2,1.7762854E1,2.626452E0,7.159261E0,3.3681274E1,5.1111746E0,1.8544463E0,8.7491295E1,1.2964436E1,5.532104E1,1.0575346E2,1.1944171E2,9.911973E1,9.377475E0,8.851661E0,2.575292E0,8.901643E0,1.7154492E2,1.4574887E1,1.2153614E0,1.6547491E1,1.1700366E0,1.4564154E0,1.2352157E1,2.1329119E1,1.0821079E0,4.0290666E0,2.5719728E1,6.177157E1,2.4562848E0,1.0508151E1,4.723839E1,8.082651E0,3.924637E1,6.6507095E1,4.955646E1,6.988525E1,3.5137104E1,6.3982624E1,7.912412E0,1.4650631E0,5.308249E0,3.5434122E0,3.7611704E0,5.140473E0,1.6934604E2,2.1988735E0,1.9482582E0,1.2626629E1,1.5194309E0,1.0832726E1,6.686472E0,1.4642648E1,1.9846134E1,5.8735948E0,5.736802E1,4.4035516E0,8.538307E0,1.9698434E0,5.270854E0,4.1967537E1,2.0972E0,5.9854517E0,2.8910185E1,1.0336185E1,4.8944855E1,1.7562243E1,3.4344566E0,4.6122005E1,5.419305E0,6.446594E1,2.762022E1,7.516884E0,7.363338E0,5.6619286E1,4.8751655E0,3.0372467E0,3.9792016E0,1.3290473E0,1.7999599E0,1.7434523E0],"tree_param":{"num_deleted":"0","num_feature":"17","num_nodes":"97","size_leaf_vector":"1"}},{"base_weights":[1.525452E-3,-2.5708708E-1,8.575566E-2,-2.8647602E-1,1.7842698E-1,5.8526006E-2,2.8677782E-1,1.558203E-1,-3.0990365E-1,-1.1941481E-1,3.6436632E-1,4.517881E-1,4.5843456E-2,4.0422133E-1,1.2759955E-1,-1.7467141E-2,3.5595566E-1,-2.7598524E-1,-6.2251645E-1,-2.9484338E-1,9.149376E-3,-2.4463397E-3,4.333671E-1,-2.624078E-3,5.277181E-1,6.791125E-2,-2.219098E-1,-5.5265264E-3,4.223809E-1,-1.9123241E-1,2.0835316E-1,9.983717E-2,2.3782045E-2,-3.0861098E-1,5.955306E-2,1.0863415E-2,-6.960003E-1,-1.8847823E-2,-2.5891627E-3,2.8881336E-2,1.0670533E-1,5.799915E-1,1.916641E-3,-1.13543786E-1,9.270296E-2,-3.5363275E-1,1.7902944E-2,1.9197631E-1,4.5843256E-1,-1.8281406E-2,-1.5359598E-2,4.228873E-1,1.1224383E-1,1.9063532E-2,-1.1655488E-2,-1.04245795E-2,-2.1964995E-2,1.2050169E-2,-1.9310923E-2,-3.6977928E-2,-2.8768587E-3,-5.138E-3,1.29938265E-2,3.795482E-2,1.2450359E-2,-9.435371E-3,3.8430677E-3,3.775483E-3,1.3615811E-2,3.6217824E-3,-1.9196447E-2,-1.1574667E-2,1.4016083E-2,1.2155207E-2,-1.0809078E-3,2.824955E-2,1.6338209E-2,3.584588E-3,-4.814592E-3,2.4708895E-2,6.7347833E-3,-5.71642E-4,1.5791556E-2],"categories":[],"categories_nodes":[],"categories_segments":[],"categories_sizes":[],"default_left":[0,0,0,0,0,0,0,0,0,0,0,0,1,0,0,0,0,0,0,0,0,0,0,0,0,0,0,0,0,0,0,0,0,0,0,0,0,0,0,0,0,0,0,1,1,0,0,0,0,1,0,0,0,0,0,0,0,0,0,0,0,0,0,0,0,0,0,0,0,0,0,0,0,0,0,0,0,0,0,0,0,0,0],"id":3,"left_children":[1,3,5,7,9,11,13,15,17,19,21,23,25,27,29,-1,31,33,35,37,-1,-1,39,-1,41,43,45,-1,47,49,51,53,-1,55,57,-1,59,-1,-1,-1,61,63,-1,65,67,69,71,73,75,77,-1,79,81,-1,-1,-1,-1,-1,-1,-1,-1,-1,-1,-1,-1,-1,-1,-1,-1,-1,-1,-1,-1,-1,-1,-1,-1,-1,-1,-1,-1,-1,-1],"loss_changes":[1.6627924E1,2.4515095E0,3.1349607E0,1.8727169E0,7.341975E-1,2.5147548E0,1.2277484E0,1.0870724E0,1.6047516E0,3.481996E-1,2.4720657E-1,6.3148594E-1,2.9315476E0,4.1047668E-1,8.255248E-1,0E0,1.7676347E-1,1.692688E0,1.1140943E0,5.818206E-2,0E0,0E0,2.6317585E-1,0E0,3.3069348E-1,2.0653465E0,1.2009434E0,0E0,2.2596884E-1,1.285228E-1,4.6443903E-1,4.2578748E-1,0E0,1.7343826E0,1.2571626E0,0E0,3.6307573E-1,0E0,0E0,0E0,1.3380335E-1,5.456948E-1,0E0,8.0672294E-1,1.2221553E0,3.4352016E-1,1.0046686E0,7.989478E-2,2.6385403E-1,3.3208575E-2,0E0,8.382642E-2,4.6960598E-1,0E0,0E0,0E0,0E0,0E0,0E0,0E0,0E0,0E0,0E0,0E0,0E0,0E0,0E0,0E0,0E0,0E0,0E0,0E0,0E0,0E0,0E0,0E0,0E0,0E0,0E0,0E0,0E0,0E0,0E0],"parents":[2147483647,0,0,1,1,2,2,3,3,4,4,5,5,6,6,7,7,8,8,9,9,10,10,11,11,12,12,13,13,14,14,16,16,17,17,18,18,19,19,22,22,24,24,25,25,26,26,28,28,29,29,30,30,31,31,33,33,34,34,36,36,40,40,41,41,43,43,44,44,45,45,46,46,47,47,48,48,49,49,51,51,52,52],"right_children":[2,4,6,8,10,12,14,16,18,20,22,24,26,28,30,-1,32,34,36,38,-1,-1,40,-1,42,44,46,-1,48,50,52,54,-1,56,58,-1,60,-1,-1,-1,62,64,-1,66,68,70,72,74,76,78,-1,80,82,-1,-1,-1,-1,-1,-1,-1,-1,-1,-1,-1,-1,-1,-1,-1,-1,-1,-1,-1,-1,-1,-1,-1,-1,-1,-1,-1,-1,-1,-1],"split_conditions":[7E0,1.28E1,1.9E1,1.099824E-2,5.0460886E-2,9.401994E0,5.6314313E-1,7.5257194E-1,2.6646938E1,4.131182E0,9.540251E0,-1.0085319E0,1.2213979E-1,4.4478267E-1,1.4621369E0,-1.7467141E-2,5.115588E-1,1.9596836E1,4.532781E-2,1.44E1,9.149376E-3,-2.4463397E-3,6E0,-2.624078E-3,1.73E1,9.514235E0,3.477581E-1,-5.5265264E-3,7E0,2E0,7.4993455E-1,2.487091E0,2.3782045E-2,5.267827E0,4E0,1.0863415E-2,7.6230645E0,-1.8847823E-2,-2.5891627E-3,2.8881336E-2,9.2308563E-1,8.8642E1,1.916641E-3,2.4251567E-2,8.8148E-1,2.7176875E-1,7.056517E-1,-7.0384614E-2,1.38E1,8.342E1,-1.5359598E-2,1E0,3.559026E0,1.9063532E-2,-1.1655488E-2,-1.04245795E-2,-2.1964995E-2,1.2050169E-2,-1.9310923E-2,-3.6977928E-2,-2.8768587E-3,-5.138E-3,1.29938265E-2,3.795482E-2,1.2450359E-2,-9.435371E-3,3.8430677E-3,3.775483E-3,1.3615811E-2,3.6217824E-3,-1.9196447E-2,-1.1574667E-2,1.4016083E-2,1.2155207E-2,-1.0809078E-3,2.824955E-2,1.6338209E-2,3.584588E-3,-4.814592E-3,2.4708895E-2,6.7347833E-3,-5.71642E-4,1.5791556E-2],"split_indices":[1,4,1,10,10,12,9,11,5,7,12,9,10,8,14,0,5,5,10,4,0,0,1,0,4,12,9,0,15,15,11,11,0,7,0,0,7,0,0,0,5,2,0,10,9,5,5,9,4,2,0,13,7,0,0,0,0,0,0,0,0,0,0,0,0,0,0,0,0,0,0,0,0,0,0,0,0,0,0,0,0,0,0],"split_type":[0,0,0,0,0,0,0,0,0,0,0,0,0,0,0,0,0,0,0,0,0,0,0,0,0,0,0,0,0,0,0,0,0,0,0,0,0,0,0,0,0,0,0,0,0,0,0,0,0,0,0,0,0,0,0,0,0,0,0,0,0,0,0,0,0,0,0,0,0,0,0,0,0,0,0,0,0,0,0,0,0,0,0],"sum_hessian":[7.6133234E2,1.8654128E2,5.747911E2,1.7506963E2,1.1471659E1,5.0735757E2,6.743349E1,8.522376E0,1.6654724E2,4.5465956E0,6.9250627E0,1.4769207E1,4.9258838E2,3.7917847E1,2.951564E1,2.2067559E0,6.3156204E0,1.5194417E2,1.4603072E1,2.8931992E0,1.6533964E0,1.032376E0,5.892687E0,1.973243E0,1.2795964E1,4.5577084E2,3.681753E1,1.1187602E0,3.6799088E1,5.688432E0,2.3827208E1,2.5955272E0,3.7200933E0,1.3855241E2,1.3391756E1,1.0175599E0,1.3585512E1,1.7508361E0,1.1423631E0,3.5546284E0,2.3380585E0,1.1393799E1,1.4021647E0,5.435522E1,4.0141562E2,2.3458025E1,1.3359507E1,5.834715E0,3.0964373E1,2.747802E0,2.94063E0,6.3199105E0,1.7507298E1,1.3279216E0,1.2676055E0,7.992106E1,5.863135E1,9.844095E0,3.5476608E0,1.2569625E1,1.0158882E0,1.1265671E0,1.2114913E0,6.5538692E0,4.83993E0,3.8977516E1,1.5377704E1,3.6764368E2,3.3771927E1,1.4649451E0,2.199308E1,6.910134E0,6.4493732E0,4.5963383E0,1.2383766E0,1.5295112E1,1.566926E1,1.3136753E0,1.4341267E0,4.4935718E0,1.8263388E0,1.147825E1,6.029048E0],"tree_param":{"num_deleted":"0","num_feature":"17","num_nodes":"83","size_leaf_vector":"1"}},{"base_weights":[1.3219462E-3,-1.6154225E-1,1.0997468E-1,-3.3554703E-1,-9.49638E-2,5.1808845E-2,2.0035292E-1,-2.3971702E-1,-5.5812585E-1,-3.4885272E-1,-6.1193854E-2,6.764694E-2,-2.0189592E-1,3.075844E-1,1.2925121E-1,1.3078475E-1,-2.7393687E-1,9.4378E-3,-6.0433406E-1,1.9000182E-1,-4.7091082E-1,-2.7635866E-1,-2.7680364E-2,3.7002087E-1,5.2245263E-2,-3.1877652E-1,8.056425E-2,1.759321E-2,3.8569134E-1,2.0100479E-1,-1.0938258E-1,3.351447E-2,-3.840855E-1,-4.4618973E-1,-1.6525908E-1,-3.1588715E-2,-8.680512E-3,3.0210475E-2,-2.1482553E-1,1.3145849E-2,-5.35065E-1,1.3657558E-1,-3.5746565E-1,3.0338797E-3,-2.1262698E-1,5.39314E-1,3.107337E-2,3.861203E-1,3.845889E-2,-3.8797843E-1,6.5885307E-3,-1.3288734E-2,1.7959155E-2,-1.8074717E-1,3.4675226E-1,3.0848914E-1,6.284992E-1,2.953621E-1,1.1938876E-1,-2.8645548E-1,6.457338E-2,-2.3432868E-2,-6.0827914E-3,1.4127714E-2,-2.6209129E-2,9.6718455E-3,-1.3576376E-2,7.243302E-4,-1.7201265E-2,-1.2991344E-2,-3.2407064E-2,-3.4966785E-3,1.5030198E-2,8.680236E-3,-1.9988466E-2,-8.7156845E-3,1.8104926E-3,-1.2532191E-2,1.5123382E-2,3.1065768E-2,4.917543E-3,-3.180613E-3,9.11643E-3,-5.729821E-3,2.8510362E-2,-1.2310997E-2,2.4216597E-3,-1.1324354E-3,-2.301865E-2,-1.7524937E-2,-3.4688741E-3,2.4210408E-4,2.2922639E-2,2.918506E-2,1.24896495E-2,3.3854198E-2,4.331576E-3,-1.4649081E-2,1.648814E-2,-5.6979083E-3,1.2621365E-2,-2.6780728E-2,-6.4521036E-3,1.9132584E-2,-3.36972E-3],"categories":[],"categories_nodes":[],"categories_segments":[],"categories_sizes":[],"default_left":[0,0,0,0,0,1,0,0,0,0,0,0,0,0,1,0,0,0,1,0,0,0,0,0,0,0,0,0,0,0,0,0,0,0,0,0,0,0,0,0,0,0,0,0,1,0,0,0,0,0,0,0,0,0,0,0,0,0,1,0,0,0,0,0,0,0,0,0,0,0,0,0,0,0,0,0,0,0,0,0,0,0,0,0,0,0,0,0,0,0,0,0,0,0,0,0,0,0,0,0,0,0,0,0,0],"id":4,"left_children":[1,3,5,7,9,11,13,15,17,19,21,23,25,27,29,31,33,-1,35,37,39,41,43,45,47,49,51,53,55,57,59,-1,61,63,65,-1,-1,-1,67,-1,69,71,73,75,77,79,81,83,85,87,-1,-1,-1,89,91,93,95,97,99,101,103,-1,-1,-1,-1,-1,-1,-1,-1,-1,-1,-1,-1,-1,-1,-1,-1,-1,-1,-1,-1,-1,-1,-1,-1,-1,-1,-1,-1,-1,-1,-1,-1,-1,-1,-1,-1,-1,-1,-1,-1,-1,-1,-1,-1],"loss_changes":[1.3088951E1,3.3972507E0,2.321961E0,1.6049814E0,1.8261218E0,1.1037543E0,1.282156E0,7.8052855E-1,9.348192E-1,1.7392552E0,1.3724823E0,1.173334E0,5.60237E-1,1.5425491E0,1.8366323E0,1.8249834E0,9.389081E-1,0E0,1.5783024E-1,1.0260571E0,1.1170082E0,9.089674E-1,9.4765395E-1,6.860465E-1,1.1121765E0,4.1449368E-1,6.297931E-1,1.0786552E0,8.1536484E-1,5.9492445E-1,7.930981E-1,0E0,2.1180391E-2,1.3040586E0,1.3773594E0,0E0,0E0,0E0,1.0692456E-1,0E0,4.354024E-1,1.8835069E-1,5.5787206E-1,8.532983E-1,5.410298E-1,2.3204088E-1,8.522448E-2,9.5011747E-1,6.8275404E-1,2.634728E-1,0E0,0E0,0E0,1.7169392E-1,2.343393E-1,5.4582834E-1,2.5791693E-1,8.5103345E-1,1.4430279E0,4.2686462E-1,5.925161E-1,0E0,0E0,0E0,0E0,0E0,0E0,0E0,0E0,0E0,0E0,0E0,0E0,0E0,0E0,0E0,0E0,0E0,0E0,0E0,0E0,0E0,0E0,0E0,0E0,0E0,0E0,0E0,0E0,0E0,0E0,0E0,0E0,0E0,0E0,0E0,0E0,0E0,0E0,0E0,0E0,0E0,0E0,0E0,0E0],"parents":[2147483647,0,0,1,1,2,2,3,3,4,4,5,5,6,6,7,7,8,8,9,9,10,10,11,11,12,12,13,13,14,14,15,15,16,16,18,18,19,19,20,20,21,21,22,22,23,23,24,24,25,25,26,26,27,27,28,28,29,29,30,30,32,32,33,33,34,34,38,38,40,40,41,41,42,42,43,43,44,44,45,45,46,46,47,47,48,48,49,49,53,53,54,54,55,55,56,56,57,57,58,58,59,59,60,60],"right_children":[2,4,6,8,10,12,14,16,18,20,22,24,26,28,30,32,34,-1,36,38,40,42,44,46,48,50,52,54,56,58,60,-1,62,64,66,-1,-1,-1,68,-1,70,72,74,76,78,80,82,84,86,88,-1,-1,-1,90,92,94,96,98,100,102,104,-1,-1,-1,-1,-1,-1,-1,-1,-1,-1,-1,-1,-1,-1,-1,-1,-1,-1,-1,-1,-1,-1,-1,-1,-1,-1,-1,-1,-1,-1,-1,-1,-1,-1,-1,-1,-1,-1,-1,-1,-1,-1,-1,-1],"split_conditions":[1E1,3.51E-1,1.6E1,1.0912463E1,4E0,1.2213979E-1,7.81775E-1,-4.9054417E1,9.421848E0,-1.1180516E0,2.4154766E-2,8E0,1E0,6.6635126E-1,9.3008E1,1.617325E1,1.8996162E0,9.4378E-3,6.587984E0,5.147022E0,2.6508933E-3,9.439932E0,1.1501802E1,1.5E1,-2.8767116E-2,9.0424764E-1,1.042E0,2E0,2.888E0,9.9659854E-1,1.8E1,3.351447E-2,3E0,1.0578635E1,3.8250654E0,-3.1588715E-2,-8.680512E-3,3.0210475E-2,3.0671726E1,1.3145849E-2,4.91E-1,5.1880676E-1,-1.2319684E-1,4.91E-1,2.0094736E0,2.108E0,3.084E0,1.313631E0,1E1,4.1696817E-1,6.5885307E-3,-1.3288734E-2,1.7959155E-2,1.8E1,1.7E1,1.549E0,1.1216919E1,1.072683E1,8.891439E0,-5.9129727E-1,-3.203302E-1,-2.3432868E-2,-6.0827914E-3,1.4127714E-2,-2.6209129E-2,9.6718455E-3,-1.3576376E-2,7.243302E-4,-1.7201265E-2,-1.2991344E-2,-3.2407064E-2,-3.4966785E-3,1.5030198E-2,8.680236E-3,-1.9988466E-2,-8.7156845E-3,1.8104926E-3,-1.2532191E-2,1.5123382E-2,3.1065768E-2,4.917543E-3,-3.180613E-3,9.11643E-3,-5.729821E-3,2.8510362E-2,-1.2310997E-2,2.4216597E-3,-1.1324354E-3,-2.301865E-2,-1.7524937E-2,-3.4688741E-3,2.4210408E-4,2.2922639E-2,2.918506E-2,1.24896495E-2,3.3854198E-2,4.331576E-3,-1.4649081E-2,1.648814E-2,-5.6979083E-3,1.2621365E-2,-2.6780728E-2,-6.4521036E-3,1.9132584E-2,-3.36972E-3],"split_indices":[1,3,0,11,0,10,5,9,12,9,10,0,16,8,2,8,11,0,10,8,10,12,11,1,6,9,3,13,3,11,1,0,0,12,11,0,0,0,8,0,3,5,14,3,14,3,3,14,0,5,0,0,0,0,1,3,11,12,11,9,9,0,0,0,0,0,0,0,0,0,0,0,0,0,0,0,0,0,0,0,0,0,0,0,0,0,0,0,0,0,0,0,0,0,0,0,0,0,0,0,0,0,0,0,0],"split_type":[0,0,0,0,0,0,0,0,0,0,0,0,0,0,0,0,0,0,0,0,0,0,0,0,0,0,0,0,0,0,0,0,0,0,0,0,0,0,0,0,0,0,0,0,0,0,0,0,0,0,0,0,0,0,0,0,0,0,0,0,0,0,0,0,0,0,0,0,0,0,0,0,0,0,0,0,0,0,0,0,0,0,0,0,0,0,0,0,0,0,0,0,0,0,0,0,0,0,0,0,0,0,0,0,0],"sum_hessian":[7.37667E2,2.949969E2,4.4267014E2,8.0518776E1,2.1447812E2,2.702897E2,1.7238043E2,5.773731E1,2.2781464E1,2.4083496E1,1.9039462E2,2.5509798E2,1.5191712E1,6.7402275E1,1.0497816E2,4.6431847E0,5.3094124E1,1.1475909E0,2.1633873E1,4.3449645E0,1.9738531E1,2.4682262E1,1.6571237E2,1.1247936E1,2.4385005E2,1.0654403E1,4.53731E0,1.4562112E1,5.284016E1,8.083114E1,2.4147018E1,2.1199467E0,2.523238E0,1.9338017E1,3.375611E1,1.9899366E1,1.7345078E0,1.9041655E0,2.440799E0,1.3378078E0,1.8400724E1,3.9398232E0,2.074244E1,1.4295526E2,2.2757107E1,7.1070538E0,4.1408825E0,8.598806E0,2.3525124E2,9.356206E0,1.2981963E0,2.043377E0,2.4939332E0,9.368092E0,5.1940207E0,4.1815254E1,1.1024905E1,3.6274647E1,4.4556488E1,1.1645818E1,1.25012E1,1.3139563E0,1.2092817E0,1.6159736E0,1.7722042E1,7.527547E0,2.6228563E1,1.1995804E0,1.2412186E0,6.31856E0,1.2082164E1,1.9980097E0,1.9418133E0,1.3013843E0,1.9441055E1,2.185761E1,1.2109765E2,2.1671064E1,1.0860426E0,5.6477947E0,1.4592589E0,2.9030275E0,1.237855E0,2.4129813E0,6.185825E0,7.1617117E0,2.2808952E2,1.7645394E0,7.5916667E0,2.8606598E0,6.507431E0,1.5359368E0,3.658084E0,5.7782006E0,3.6037052E1,9.888729E0,1.1361761E0,1.5886033E0,3.4686043E1,1.623102E1,2.8325468E1,3.578714E0,8.067103E0,3.10873E0,9.39247E0],"tree_param":{"num_deleted":"0","num_feature":"17","num_nodes":"105","size_leaf_vector":"1"}},{"base_weights":[1.7357861E-3,-1.8660614E-1,8.3885655E-2,-2.4960814E-1,-3.2543316E-2,2.2909991E-2,1.4656594E-1,-1.7343572E-1,-3.545832E-1,-3.0507615E-2,7.0285695E-3,-5.982645E-2,1.14691816E-1,2.6245711E-2,1.3900957E-1,3.443671E-2,-2.1167353E-1,-4.7047028E-1,-1.8628162E-1,4.5480257E-1,-3.054985E-2,-1.330923E-2,-2.9519182E-1,4.6789354E-1,9.693208E-2,8.4184356E-2,1.9059686E-1,2.4974562E-2,-2.2520117E-1,-3.4913442E-1,-6.652934E-1,-3.9746496E-1,-7.670183E-2,3.2710705E-2,-1.52997E-3,-1.0359936E-1,2.3657086E-1,3.6563468E-1,-3.7609108E-2,-8.742552E-2,-4.346259E-1,2.849258E-2,1.0271581E-2,2.9219074E-2,8.408272E-2,1.0649585E-1,-1.5056387E-1,-1.6977286E-2,2.0626627E-1,-1.2289431E-2,9.8198345E-3,-2.2330754E-2,-1.2347477E-3,-3.6588117E-2,-8.692839E-3,-2.2840478E-2,9.401139E-4,3.63986E-3,-2.0068945E-2,-2.5599439E-2,-3.2511547E-3,-1.1997935E-2,1.7877238E-2,3.242284E-4,2.7125785E-2,-6.1511486E-3,1.8195165E-3,-1.1659029E-2,1.1972837E-2,-2.4701936E-2,1.2668093E-4,1.8513773E-3,1.0382058E-2,8.218871E-3,3.8732923E-4,-1.4269941E-2,-8.601931E-4,1.8614607E-2,8.272595E-3],"categories":[],"categories_nodes":[],"categories_segments":[],"categories_sizes":[],"default_left":[1,0,0,1,0,0,0,0,0,0,0,1,0,0,0,0,0,0,0,0,0,0,0,0,0,1,0,0,1,0,0,0,0,0,0,0,0,0,0,0,0,0,0,0,0,1,0,0,0,0,0,0,0,0,0,0,0,0,0,0,0,0,0,0,0,0,0,0,0,0,0,0,0,0,0,0,0,0,0],"id":5,"left_children":[1,3,5,7,9,11,13,15,17,-1,19,21,23,-1,25,-1,27,29,31,33,35,37,39,41,43,45,47,-1,49,51,53,55,57,-1,-1,59,61,63,65,67,69,-1,-1,-1,71,73,75,-1,77,-1,-1,-1,-1,-1,-1,-1,-1,-1,-1,-1,-1,-1,-1,-1,-1,-1,-1,-1,-1,-1,-1,-1,-1,-1,-1,-1,-1,-1,-1],"loss_changes":[1.1594937E1,2.2010255E0,1.9909067E0,1.2290134E0,1.5405077E0,2.0243292E0,6.621022E-1,3.2936308E0,1.2173166E0,0E0,1.0889329E0,1.5330334E0,7.4687123E-1,0E0,7.007513E-1,0E0,9.994216E-1,6.8889236E-1,6.392045E-1,5.049174E-1,1.1929404E0,1.1027389E0,6.317487E-1,3.7744522E-2,7.1193624E-1,6.6892356E-1,1.1481547E0,0E0,8.395195E-1,8.1496835E-1,3.252225E-1,2.4690342E-1,1.0141684E0,0E0,0E0,7.1843684E-1,8.446304E-1,4.551351E-1,7.126459E-1,5.578324E-1,3.5403156E-1,0E0,0E0,0E0,6.8743014E-1,6.527295E-1,1.9708946E-1,0E0,7.9682016E-1,0E0,0E0,0E0,0E0,0E0,0E0,0E0,0E0,0E0,0E0,0E0,0E0,0E0,0E0,0E0,0E0,0E0,0E0,0E0,0E0,0E0,0E0,0E0,0E0,0E0,0E0,0E0,0E0,0E0,0E0],"parents":[2147483647,0,0,1,1,2,2,3,3,4,4,5,5,6,6,7,7,8,8,10,10,11,11,12,12,14,14,16,16,17,17,18,18,19,19,20,20,21,21,22,22,23,23,24,24,25,25,26,26,28,28,29,29,30,30,31,31,32,32,35,35,36,36,37,37,38,38,39,39,40,40,44,44,45,45,46,46,48,48],"right_children":[2,4,6,8,10,12,14,16,18,-1,20,22,24,-1,26,-1,28,30,32,34,36,38,40,42,44,46,48,-1,50,52,54,56,58,-1,-1,60,62,64,66,68,70,-1,-1,-1,72,74,76,-1,78,-1,-1,-1,-1,-1,-1,-1,-1,-1,-1,-1,-1,-1,-1,-1,-1,-1,-1,-1,-1,-1,-1,-1,-1,-1,-1,-1,-1,-1,-1],"split_conditions":[9.1E0,9E0,1.4E1,2.1483104E-1,-9.2423135E-1,1.3E1,-1.6113263E-1,1.7159383E0,5E0,-3.0507615E-2,1.8378732E0,4E0,9.454685E0,2.6245711E-2,1E0,3.443671E-2,-9.022312E1,2.4735851E1,1.2140135E0,7.8524E1,1E0,1.7958102E0,9.770786E0,7.6854E1,-5.045964E-2,1.175E1,3.38664E-3,2.4974562E-2,1.8750883E0,1.397325E1,6.8544765E0,1.1365839E1,5.6920996E0,3.2710705E-2,-1.52997E-3,7.1666E1,5.0227976E-1,-1.3772468E-1,2.9160687E-1,9.63113E0,1.07866E2,2.849258E-2,1.0271581E-2,2.9219074E-2,9.1461E1,9.241E1,9.3143845E-1,-1.6977286E-2,1.5E1,-1.2289431E-2,9.8198345E-3,-2.2330754E-2,-1.2347477E-3,-3.6588117E-2,-8.692839E-3,-2.2840478E-2,9.401139E-4,3.63986E-3,-2.0068945E-2,-2.5599439E-2,-3.2511547E-3,-1.1997935E-2,1.7877238E-2,3.242284E-4,2.7125785E-2,-6.1511486E-3,1.8195165E-3,-1.1659029E-2,1.1972837E-2,-2.4701936E-2,1.2668093E-4,1.8513773E-3,1.0382058E-2,8.218871E-3,3.8732923E-4,-1.4269941E-2,-8.601931E-4,1.8614607E-2,8.272595E-3],"split_indices":[4,1,1,10,6,4,14,7,1,0,7,15,12,0,13,0,9,8,10,2,16,14,12,2,6,12,10,0,14,8,10,11,7,0,0,2,5,9,9,12,2,0,0,0,2,2,11,0,1,0,0,0,0,0,0,0,0,0,0,0,0,0,0,0,0,0,0,0,0,0,0,0,0,0,0,0,0,0,0],"split_type":[0,0,0,0,0,0,0,0,0,0,0,0,0,0,0,0,0,0,0,0,0,0,0,0,0,0,0,0,0,0,0,0,0,0,0,0,0,0,0,0,0,0,0,0,0,0,0,0,0,0,0,0,0,0,0,0,0,0,0,0,0,0,0,0,0,0,0,0,0,0,0,0,0,0,0,0,0,0,0],"sum_hessian":[7.473897E2,2.2660025E2,5.207894E2,1.6039046E2,6.6209785E1,2.6467648E2,2.5611295E2,9.448328E1,6.590719E1,3.3206892E0,6.28891E1,1.3938051E2,1.2529597E2,3.674293E0,2.5243866E2,3.2899966E0,9.119328E1,3.796814E1,2.7939049E1,4.009558E0,5.887954E1,1.1726166E2,2.211885E1,4.785103E0,1.20510864E2,1.2365463E2,1.2878403E2,1.0317028E0,9.0161575E1,2.5117203E1,1.2850936E1,8.647098E0,1.929195E1,2.5955029E0,1.4140552E0,4.6716217E1,1.2163323E1,6.2198334E0,1.11041824E2,9.536225E0,1.2582625E1,2.6028147E0,2.1822882E0,1.9527438E0,1.1855812E2,1.1342095E2,1.0233681E1,3.1038024E0,1.2568023E2,8.636139E1,3.8001852E0,1.902454E1,6.0926623E0,1.088911E1,1.9618263E0,7.482911E0,1.1641865E0,1.3740747E1,5.5512033E0,2.9727674E0,4.374345E1,2.263518E0,9.899805E0,2.3945174E0,3.825316E0,5.123794E1,5.9803886E1,6.7936335E0,2.7425923E0,1.0962624E1,1.6200025E0,8.680105E1,3.1757065E1,7.108823E1,4.233273E1,4.521804E0,5.7118773E0,2.3197046E1,1.02483185E2],"tree_param":{"num_deleted":"0","num_feature":"17","num_nodes":"79","size_leaf_vector":"1"}},{"base_weights":[-1.1603024E-2,-2.95538E-1,3.1361997E-2,-4.327596E-1,-1.9611518E-1,-1.23915195E-1,6.280142E-2,5.9557E-3,-4.576237E-1,-1.16703495E-1,-4.0169546E-1,3.934921E-1,-1.4498201E-1,3.4323168E-1,5.3552657E-2,-5.36634E-1,-3.0183017E-1,6.0251296E-2,-2.6609388E-1,-4.7731858E-1,8.629846E-3,3.1394947E-2,-9.087379E-3,1.2920757E-1,-1.9826442E-1,4.1012824E-1,-4.2542722E-2,1.8887468E-2,1.2956181E-1,-3.462455E-1,-7.4527806E-1,-2.618233E-2,-4.098714E-2,-2.76411E-2,1.6133605E-1,-4.3008232E-1,-4.322088E-3,-5.608612E-1,-8.3758995E-2,1.3698362E-2,2.4792543E-2,-2.1303955E-1,1.8994614E-2,8.735121E-2,4.9939603E-1,-7.18129E-3,4.2328765E-3,2.4885504E-2,-2.5850644E-2,3.7893817E-1,1.1496106E-1,-2.1139419E-2,1.3496026E-2,-3.9035734E-2,-1.060707E-2,1.1643856E-2,-9.597114E-3,-1.4696225E-2,1.2352972E-2,-9.811689E-3,-2.4385726E-2,1.5888374E-2,-1.2372845E-2,-3.0055106E-2,-1.0958543E-2,-1.2775359E-2,4.0940675E-3,-1.5736172E-2,6.260197E-3,1.4274317E-2,-1.1373064E-2,-9.102828E-3,1.3839508E-2,3.5216864E-2,1.3256418E-2,-9.845834E-4,3.6292453E-3,2.1413397E-2,1.7377554E-3,4.2388975E-3,1.2778419E-2],"categories":[],"categories_nodes":[],"categories_segments":[],"categories_sizes":[],"default_left":[0,0,0,0,0,0,0,0,0,0,1,0,1,0,0,0,0,0,0,0,0,0,0,0,1,0,0,1,0,0,0,0,0,0,0,0,1,0,0,0,0,0,0,0,0,0,0,0,0,0,1,0,0,0,0,0,0,0,0,0,0,0,0,0,0,0,0,0,0,0,0,0,0,0,0,0,0,0,0,0,0],"id":6,"left_children":[1,3,5,7,9,11,13,-1,15,17,19,21,23,25,27,29,31,33,35,37,-1,-1,-1,39,41,43,45,47,49,51,53,-1,55,-1,57,59,61,63,65,67,-1,69,-1,71,73,-1,-1,75,-1,77,79,-1,-1,-1,-1,-1,-1,-1,-1,-1,-1,-1,-1,-1,-1,-1,-1,-1,-1,-1,-1,-1,-1,-1,-1,-1,-1,-1,-1,-1,-1],"loss_changes":[8.939024E0,1.2289839E0,3.1159825E0,5.983262E-1,8.946309E-1,1.2292721E0,1.3566234E0,0E0,3.07374E-1,1.1530408E0,7.625079E-1,7.1774936E-1,1.5459609E0,4.4949365E-1,1.3529426E0,6.958542E-1,8.531282E-1,1.3598955E0,1.007218E0,4.167378E-1,0E0,0E0,0E0,7.359439E-1,8.2862425E-1,3.7017894E-1,5.561961E-2,1.1522064E0,5.424695E-1,7.94392E-1,3.4446716E-2,0E0,3.7674007E-1,0E0,7.8977555E-1,9.893799E-2,8.667627E-1,2.5809765E-2,1.2462069E-1,5.654507E-1,0E0,6.831517E-1,0E0,2.710378E-1,3.4320784E-1,0E0,0E0,7.4879384E-1,0E0,1.288681E-1,6.2971115E-1,0E0,0E0,0E0,0E0,0E0,0E0,0E0,0E0,0E0,0E0,0E0,0E0,0E0,0E0,0E0,0E0,0E0,0E0,0E0,0E0,0E0,0E0,0E0,0E0,0E0,0E0,0E0,0E0,0E0,0E0],"parents":[2147483647,0,0,1,1,2,2,3,3,4,4,5,5,6,6,8,8,9,9,10,10,11,11,12,12,13,13,14,14,15,15,16,16,17,17,18,18,19,19,23,23,24,24,25,25,26,26,27,27,28,28,29,29,30,30,32,32,34,34,35,35,36,36,37,37,38,38,39,39,41,41,43,43,44,44,47,47,49,49,50,50],"right_children":[2,4,6,8,10,12,14,-1,16,18,20,22,24,26,28,30,32,34,36,38,-1,-1,-1,40,42,44,46,48,50,52,54,-1,56,-1,58,60,62,64,66,68,-1,70,-1,72,74,-1,-1,76,-1,78,80,-1,-1,-1,-1,-1,-1,-1,-1,-1,-1,-1,-1,-1,-1,-1,-1,-1,-1,-1,-1,-1,-1,-1,-1,-1,-1,-1,-1,-1,-1],"split_conditions":[4.1E-1,6.1E0,8.1E0,6.4819E1,2E0,1.5670213E0,-2.8767116E-2,5.9557E-3,2E0,7.888889E0,1.4107231E0,1.1437654E1,-3.9897114E1,1.1501802E1,1.6E1,2.1929018E1,1.9026659E1,5E0,2.86E-1,6E0,8.629846E-3,3.1394947E-2,-9.087379E-3,1E0,1.1543E1,-5.479587E-1,8.1061E1,6.613118E0,-3.5516154E-2,5.8208664E1,1.2880295E1,-2.618233E-2,7.6075E1,-2.76411E-2,1.2020497E0,7E0,-4.129532E-1,1.0200689E1,2.48E-1,9.724105E0,2.4792543E-2,2.2753158E-1,1.8994614E-2,8.0829E1,-2.6142105E-1,-7.18129E-3,4.2328765E-3,1.2888889E1,-2.5850644E-2,8.845605E-1,5.4276776E-1,-2.1139419E-2,1.3496026E-2,-3.9035734E-2,-1.060707E-2,1.1643856E-2,-9.597114E-3,-1.4696225E-2,1.2352972E-2,-9.811689E-3,-2.4385726E-2,1.5888374E-2,-1.2372845E-2,-3.0055106E-2,-1.0958543E-2,-1.2775359E-2,4.0940675E-3,-1.5736172E-2,6.260197E-3,1.4274317E-2,-1.1373064E-2,-9.102828E-3,1.3839508E-2,3.5216864E-2,1.3256418E-2,-9.845834E-4,3.6292453E-3,2.1413397E-2,1.7377554E-3,4.2388975E-3,1.2778419E-2],"split_indices":[3,4,4,2,13,7,6,0,13,4,14,5,9,11,0,5,5,15,3,1,0,0,0,16,3,9,2,7,14,9,11,0,2,0,11,15,9,11,3,11,0,5,0,2,9,0,0,4,0,8,9,0,0,0,0,0,0,0,0,0,0,0,0,0,0,0,0,0,0,0,0,0,0,0,0,0,0,0,0,0,0],"split_type":[0,0,0,0,0,0,0,0,0,0,0,0,0,0,0,0,0,0,0,0,0,0,0,0,0,0,0,0,0,0,0,0,0,0,0,0,0,0,0,0,0,0,0,0,0,0,0,0,0,0,0,0,0,0,0,0,0,0,0,0,0,0,0,0,0,0,0,0,0,0,0,0,0,0,0,0,0,0,0,0,0],"sum_hessian":[7.3099084E2,9.530273E1,6.356881E2,3.86315E1,5.6671227E1,1.06542175E2,5.2914594E2,1.5020472E0,3.7129456E1,4.2010906E1,1.4660321E1,3.4766366E0,1.0306554E2,1.5741435E1,5.134045E2,2.301362E1,1.4115834E1,1.950439E1,2.2506514E1,1.310368E1,1.5566413E0,2.4050496E0,1.071587E0,1.6537767E1,8.652777E1,1.3361337E1,2.3800986E0,3.5345444E2,1.5995006E2,1.3423826E1,9.589795E0,7.084112E0,7.031722E0,2.1281834E0,1.7376207E1,1.3442448E1,9.064067E0,1.0458508E1,2.6451716E0,1.3364657E1,3.1731095E0,8.498739E1,1.5403836E0,3.3233185E0,1.0038018E1,1.2542466E0,1.1258519E0,3.504852E2,2.9692228E0,7.4667616E0,1.5248329E2,1.2219683E1,1.204143E0,8.556668E0,1.0331268E0,2.3058095E0,4.7259126E0,2.3685484E0,1.5007659E1,3.5288224E0,9.913626E0,3.7669244E0,5.2971425E0,8.677371E0,1.7811368E0,1.0322826E0,1.6128889E0,2.9255192E0,1.0439138E1,1.861007E0,8.312638E1,1.3881507E0,1.9351678E0,4.283869E0,5.7541494E0,1.8147556E2,1.6900964E2,6.3170695E0,1.149692E0,1.26855194E2,2.5628101E1],"tree_param":{"num_deleted":"0","num_feature":"17","num_nodes":"81","size_leaf_vector":"1"}},{"base_weights":[-4.508523E-3,-1.4427845E-1,8.007393E-2,-2.7844223E-1,-7.880329E-2,8.614466E-2,-2.9992887E-1,-2.3005708E-1,-5.322917E-1,-1.7166387E-1,-1.18352575E-2,2.5314063E-1,7.415764E-2,-3.0105878E-3,-3.311723E-1,2.4911916E-2,-2.5132066E-1,9.020588E-3,-6.044788E-1,-3.8394857E-2,-2.862757E-1,-2.5525603E-1,2.8813312E-2,-1.796812E-1,3.2550424E-1,2.5367287E-1,6.227362E-2,-3.964588E-3,-1.865909E-2,-4.219121E-1,-1.8511459E-1,-3.504709E-3,-6.7875665E-1,6.98268E-2,-3.2227257E-1,-1.4417161E-1,-4.0669227E-1,2.4898024E-1,-3.9112088E-1,2.1326585E-1,-5.1148374E-2,-1.9475719E-2,7.346298E-3,5.667311E-1,1.9710805E-1,4.646752E-1,-1.8118892E-2,5.0631665E-2,2.4641283E-1,1.1741118E-2,-2.3495855E-2,2.511012E-2,-1.0392743E-2,-1.4795306E-2,-3.812531E-2,-1.4318487E-3,2.7007986E-2,-2.5051932E-3,-1.7658068E-2,-1.4073901E-2,8.828722E-3,-2.4348514E-2,-9.087679E-3,-1.0567042E-2,2.8953094E-2,-9.553059E-3,-2.3471827E-2,1.2838735E-2,-1.6310658E-2,-1.7135855E-2,9.4308454E-4,2.6384348E-3,3.2848313E-2,3.4762532E-3,2.3038926E-2,-1.8381778E-3,2.604622E-2,1.7544426E-2,-8.1150355E-3,3.1662926E-3,-4.329835E-3,-1.3138637E-2,1.53423995E-2],"categories":[],"categories_nodes":[],"categories_segments":[],"categories_sizes":[],"default_left":[0,0,0,0,0,1,0,0,0,0,0,0,0,0,0,0,0,0,0,0,0,0,0,0,0,1,0,0,0,0,0,0,0,0,0,0,0,0,0,0,0,0,0,1,1,0,0,0,0,0,0,0,0,0,0,0,0,0,0,0,0,0,0,0,0,0,0,0,0,0,0,0,0,0,0,0,0,0,0,0,0,0,0],"id":7,"left_children":[1,3,5,7,9,11,13,15,17,19,21,23,25,-1,27,-1,29,-1,31,33,35,37,39,41,43,45,47,-1,-1,49,51,-1,53,55,57,59,61,63,65,67,69,-1,-1,71,73,75,77,79,81,-1,-1,-1,-1,-1,-1,-1,-1,-1,-1,-1,-1,-1,-1,-1,-1,-1,-1,-1,-1,-1,-1,-1,-1,-1,-1,-1,-1,-1,-1,-1,-1,-1,-1],"loss_changes":[8.653545E0,2.4021173E0,1.0779049E0,9.8430157E-1,1.1598839E0,8.813486E-1,3.5439372E-2,1.3245258E0,8.120594E-1,1.1836464E0,1.0921084E0,9.8872936E-1,8.8225985E-1,0E0,3.7278056E-2,0E0,7.792587E-1,0E0,4.5404243E-1,1.1689723E0,6.582589E-1,1.1790379E0,1.4097298E0,3.9295268E-1,6.8744755E-1,1.4887058E0,8.3675885E-1,0E0,0E0,7.548232E-1,9.869875E-1,0E0,1.2643147E-1,1.3047527E0,7.039368E-2,9.642513E-1,3.1108522E-1,7.2442204E-1,1.1127174E-1,7.615051E-1,1.3734359E0,0E0,0E0,3.562758E-1,5.860096E-1,4.3006563E-1,7.083531E-1,6.567291E-1,7.9757047E-1,0E0,0E0,0E0,0E0,0E0,0E0,0E0,0E0,0E0,0E0,0E0,0E0,0E0,0E0,0E0,0E0,0E0,0E0,0E0,0E0,0E0,0E0,0E0,0E0,0E0,0E0,0E0,0E0,0E0,0E0,0E0,0E0,0E0,0E0],"parents":[2147483647,0,0,1,1,2,2,3,3,4,4,5,5,6,6,7,7,8,8,9,9,10,10,11,11,12,12,14,14,16,16,18,18,19,19,20,20,21,21,22,22,23,23,24,24,25,25,26,26,29,29,30,30,32,32,33,33,34,34,35,35,36,36,37,37,38,38,39,39,40,40,43,43,44,44,45,45,46,46,47,47,48,48],"right_children":[2,4,6,8,10,12,14,16,18,20,22,24,26,-1,28,-1,30,-1,32,34,36,38,40,42,44,46,48,-1,-1,50,52,-1,54,56,58,60,62,64,66,68,70,-1,-1,72,74,76,78,80,82,-1,-1,-1,-1,-1,-1,-1,-1,-1,-1,-1,-1,-1,-1,-1,-1,-1,-1,-1,-1,-1,-1,-1,-1,-1,-1,-1,-1,-1,-1,-1,-1,-1,-1],"split_conditions":[1E1,6.8E0,4.2369404E1,2.6646938E1,6.6921985E-1,9.433447E0,1.2045487E0,1.5670213E0,4.532781E-2,7.1770924E-1,9.448141E0,6.246096E-1,7.1388155E-1,-3.0105878E-3,3.2401973E-1,2.4911916E-2,7.6075E1,9.020588E-3,5E0,6.0464406E-1,7.327272E-1,9.2E-2,9.762025E0,1.242E0,1.614E0,-2.1206075E-1,2E1,-3.964588E-3,-1.865909E-2,3.9E0,2.2753158E-1,-3.504709E-3,7.0948E1,5.8189607E-1,7.214E1,5.852745E-1,1.27E1,3E0,2.1538339E0,9.276036E0,9.846154E0,-1.9475719E-2,7.346298E-3,-1.0085319E0,2.386E0,1.4E1,2.3309512E0,4.301E0,6.166584E-1,1.1741118E-2,-2.3495855E-2,2.511012E-2,-1.0392743E-2,-1.4795306E-2,-3.812531E-2,-1.4318487E-3,2.7007986E-2,-2.5051932E-3,-1.7658068E-2,-1.4073901E-2,8.828722E-3,-2.4348514E-2,-9.087679E-3,-1.0567042E-2,2.8953094E-2,-9.553059E-3,-2.3471827E-2,1.2838735E-2,-1.6310658E-2,-1.7135855E-2,9.4308454E-4,2.6384348E-3,3.2848313E-2,3.4762532E-3,2.3038926E-2,-1.8381778E-3,2.604622E-2,1.7544426E-2,-8.1150355E-3,3.1662926E-3,-4.329835E-3,-1.3138637E-2,1.53423995E-2],"split_indices":[1,4,8,5,5,12,10,7,10,10,12,5,11,0,5,0,2,0,15,5,8,3,12,3,3,9,1,0,0,4,5,0,2,8,2,5,4,1,10,5,12,0,0,9,3,15,7,3,8,0,0,0,0,0,0,0,0,0,0,0,0,0,0,0,0,0,0,0,0,0,0,0,0,0,0,0,0,0,0,0,0,0,0],"split_type":[0,0,0,0,0,0,0,0,0,0,0,0,0,0,0,0,0,0,0,0,0,0,0,0,0,0,0,0,0,0,0,0,0,0,0,0,0,0,0,0,0,0,0,0,0,0,0,0,0,0,0,0,0,0,0,0,0,0,0,0,0,0,0,0,0,0,0,0,0,0,0,0,0,0,0,0,0,0,0,0,0,0,0],"sum_hessian":[7.300042E2,2.749507E2,4.5505347E2,8.9108246E1,1.8584247E2,4.486592E2,6.394248E0,7.644388E1,1.2664362E1,7.7212776E1,1.086297E2,2.8700695E1,4.1995853E2,1.0748184E0,5.31943E0,1.5322281E0,7.491165E1,1.0268676E0,1.1637494E1,3.6317875E1,4.08949E1,1.4788764E1,9.3840935E1,3.8987036E0,2.480199E1,2.4812038E1,3.9514648E2,1.173119E0,4.146311E0,1.9442348E1,5.5469303E1,1.6573725E0,9.980122E0,2.6839844E1,9.47803E0,1.9766106E1,2.1128794E1,2.9622788E0,1.1826486E1,2.7874352E1,6.596658E1,2.256425E0,1.6422787E0,7.4295855E0,1.7372406E1,1.3568568E1,1.1243471E1,3.728486E2,2.2297892E1,1.0592747E0,1.8383074E1,1.1012132E0,5.436809E1,2.6049843E0,7.375138E0,2.2970173E1,3.8696713E0,1.2332888E0,8.244741E0,1.3926721E1,5.839385E0,1.4712995E1,6.4157996E0,1.3873112E0,1.5749676E0,4.2948337E0,7.531652E0,2.627899E1,1.5953618E0,1.2018453E1,5.3948128E1,1.3462712E0,6.083314E0,1.2559086E1,4.813319E0,1.403486E0,1.2165082E1,2.756093E0,8.487378E0,3.4177182E2,3.1076767E1,2.010529E0,2.0287363E1],"tree_param":{"num_deleted":"0","num_feature":"17","num_nodes":"83","size_leaf_vector":"1"}},{"base_weights":[6.368065E-3,-2.369201E-1,5.230398E-2,1.8399759E-1,-2.6580077E-1,-2.2292268E-2,1.1858937E-1,3.7539494E-1,-1.4726691E-2,-2.988018E-1,1.54881E-1,-1.08710356E-1,2.7515523E-2,1.042422E-1,2.963391E-1,4.9513516E-1,-3.8809583E-3,-2.9320573E-2,-2.5559166E-1,-6.757636E-2,2.6878117E-2,2.8912878E-1,-1.3459317E-1,2.4022259E-1,-4.947474E-3,1.1292416E-1,-1.4167504E-1,6.069336E-2,4.8815566E-1,6.2822336E-3,2.806133E-2,-1.8777072E-1,-4.1877887E-1,1.2766995E-2,-1.352741E-2,-6.1470917E-3,3.8894683E-1,-1.0465104E-1,-4.6118626E-1,3.751467E-1,-1.883356E-1,-7.3942125E-2,1.0407093E-1,1.0393581E-1,4.0197304E-1,1.3880633E-2,-2.7804196E-1,-1.5865433E-1,2.5131255E-2,2.5067312E-1,3.067455E-2,-1.1915049E-2,1.999685E-2,-2.3413228E-2,9.140457E-3,2.2785717E-3,2.3488563E-2,-6.6628912E-3,1.5227414E-2,3.571907E-3,-2.831932E-2,2.2495402E-2,3.2750163E-3,-2.5196252E-2,1.0080885E-2,-6.4061866E-3,6.846726E-3,4.2001804E-5,1.3886538E-2,5.69394E-3,-9.252769E-3,6.382182E-3,2.5534524E-2,6.3924114E-3,-1.8008022E-2,-1.7997282E-2,-2.5987325E-3,-5.4877806E-3,1.8559836E-2],"categories":[],"categories_nodes":[],"categories_segments":[],"categories_sizes":[],"default_left":[0,0,0,0,0,0,1,0,0,0,0,0,0,1,0,0,0,0,0,0,0,0,0,0,0,1,0,0,0,0,0,0,0,0,0,0,0,0,0,1,0,1,0,1,0,0,0,0,0,0,0,0,0,0,0,0,0,0,0,0,0,0,0,0,0,0,0,0,0,0,0,0,0,0,0,0,0,0,0],"id":8,"left_children":[1,3,5,7,9,11,13,15,-1,17,19,21,23,25,27,29,-1,-1,31,33,-1,35,37,39,41,43,45,47,49,-1,-1,51,53,-1,-1,-1,55,57,59,61,63,65,67,69,71,-1,73,75,-1,77,-1,-1,-1,-1,-1,-1,-1,-1,-1,-1,-1,-1,-1,-1,-1,-1,-1,-1,-1,-1,-1,-1,-1,-1,-1,-1,-1,-1,-1],"loss_changes":[8.110715E0,1.4501905E0,3.0206928E0,8.4257686E-1,1.5495105E0,1.2427237E0,7.937069E-1,3.7195408E-1,0E0,1.1021328E0,7.629022E-1,1.1253779E0,1.2683568E0,6.5808725E-1,1.037431E0,5.1552773E-2,0E0,0E0,9.10337E-1,4.8106223E-1,0E0,3.2598174E-1,9.2716E-1,1.4768461E0,1.2126147E0,7.143619E-1,6.889163E-1,1.2173227E0,2.2934318E-1,0E0,0E0,2.0237274E0,8.424015E-1,0E0,0E0,0E0,1.3634467E-1,1.1253022E0,4.9339116E-1,4.0644002E-1,9.00154E-1,1.1451352E0,1.1202649E0,8.3601093E-1,1.8619025E-1,0E0,3.3178627E-1,1.6602454E-1,0E0,3.0735373E-1,0E0,0E0,0E0,0E0,0E0,0E0,0E0,0E0,0E0,0E0,0E0,0E0,0E0,0E0,0E0,0E0,0E0,0E0,0E0,0E0,0E0,0E0,0E0,0E0,0E0,0E0,0E0,0E0,0E0],"parents":[2147483647,0,0,1,1,2,2,3,3,4,4,5,5,6,6,7,7,9,9,10,10,11,11,12,12,13,13,14,14,15,15,18,18,19,19,21,21,22,22,23,23,24,24,25,25,26,26,27,27,28,28,31,31,32,32,36,36,37,37,38,38,39,39,40,40,41,41,42,42,43,43,44,44,46,46,47,47,49,49],"right_children":[2,4,6,8,10,12,14,16,-1,18,20,22,24,26,28,30,-1,-1,32,34,-1,36,38,40,42,44,46,48,50,-1,-1,52,54,-1,-1,-1,56,58,60,62,64,66,68,70,72,-1,74,76,-1,78,-1,-1,-1,-1,-1,-1,-1,-1,-1,-1,-1,-1,-1,-1,-1,-1,-1,-1,-1,-1,-1,-1,-1,-1,-1,-1,-1,-1,-1],"split_conditions":[5.23E-1,1.099824E-2,1.3E1,4.31E-1,1.28E1,9.8E0,-9.2423135E-1,9.922549E0,-1.4726691E-2,2.9805897E-2,8.7097E1,-1.3031107E-1,6.6869664E-1,1.148664E-1,8.239E1,7.549324E-1,-3.8809583E-3,-2.9320573E-2,1.0847826E1,6.396003E-1,2.6878117E-2,7E0,1.77E0,4.802777E0,4.1952353E0,1.2504255E1,7.7703E1,3.0983868E0,6.25735E-1,6.2822336E-3,2.806133E-2,1.0783919E1,2.4228464E1,1.2766995E-2,-1.352741E-2,-6.1470917E-3,1.1123506E1,1.603E0,1.97765E0,4E0,9.19E-1,4.1881353E-2,8.6467505E-1,5.440588E0,9.727823E0,1.3880633E-2,9.398105E0,5.9102464E-1,2.5131255E-2,1.4E1,3.067455E-2,-1.1915049E-2,1.999685E-2,-2.3413228E-2,9.140457E-3,2.2785717E-3,2.3488563E-2,-6.6628912E-3,1.5227414E-2,3.571907E-3,-2.831932E-2,2.2495402E-2,3.2750163E-3,-2.5196252E-2,1.0080885E-2,-6.4061866E-3,6.846726E-3,4.2001804E-5,1.3886538E-2,5.69394E-3,-9.252769E-3,6.382182E-3,2.5534524E-2,6.3924114E-3,-1.8008022E-2,-1.7997282E-2,-2.5987325E-3,-5.4877806E-3,1.8559836E-2],"split_indices":[3,10,1,3,4,4,6,11,0,6,2,14,8,10,2,11,0,0,12,8,0,0,3,7,7,5,2,7,5,0,0,12,8,0,0,0,12,3,14,15,3,10,5,7,11,0,12,5,0,0,0,0,0,0,0,0,0,0,0,0,0,0,0,0,0,0,0,0,0,0,0,0,0,0,0,0,0,0,0],"split_type":[0,0,0,0,0,0,0,0,0,0,0,0,0,0,0,0,0,0,0,0,0,0,0,0,0,0,0,0,0,0,0,0,0,0,0,0,0,0,0,0,0,0,0,0,0,0,0,0,0,0,0,0,0,0,0,0,0,0,0,0,0,0,0,0,0,0,0,0,0,0,0,0,0,0,0,0,0,0,0],"sum_hessian":[7.2363904E2,1.14271385E2,6.093677E2,6.992284E0,1.072791E2,2.8702225E2,3.223454E2,5.1485534E0,1.8437306E0,9.974423E1,7.5348687E0,1.0451055E2,1.825117E2,2.9973828E2,2.2607096E1,3.998654E0,1.1498995E0,1.1386147E1,8.8358086E1,5.285662E0,2.249207E0,5.762698E0,9.8747856E1,2.3318987E1,1.5919272E2,2.9003943E2,9.69886E0,1.0735275E1,1.187182E1,1.0469052E0,2.9517486E0,6.393657E1,2.4421515E1,1.9404745E0,3.3451874E0,1.0785501E0,4.6841483E0,9.166447E1,7.0833883E0,1.7830114E1,5.488871E0,9.768954E1,6.1503185E1,2.8261087E2,7.428568E0,2.1260653E0,7.572795E0,7.6027412E0,3.132534E0,5.137472E0,6.7343483E0,5.9422073E1,4.514497E0,2.2770102E1,1.6514139E0,1.1904515E0,3.4936967E0,8.630528E1,5.359186E0,1.2212375E0,5.8621507E0,1.3997557E1,3.8325586E0,2.8721602E0,2.616711E0,7.803264E1,1.9656897E1,3.920367E1,2.2299517E1,2.737966E2,8.814255E0,2.7254515E0,4.703117E0,1.1805865E0,6.392208E0,1.8111838E0,5.7915573E0,1.3098067E0,3.8276653E0],"tree_param":{"num_deleted":"0","num_feature":"17","num_nodes":"79","size_leaf_vector":"1"}},{"base_weights":[-7.190745E-4,-1.8448105E-1,4.937116E-2,-1.08362146E-1,-3.364152E-1,-1.7931713E-1,5.792469E-2,3.8405588E-1,-1.3969019E-1,-6.346771E-1,-2.3916931E-1,6.7536995E-2,-3.2348695E-1,1.8356092E-1,4.293984E-2,5.4052836E-1,-9.405143E-3,-1.609288E-1,3.526144E-1,-3.7796378E-2,-2.966866E-1,-2.644036E-1,9.410364E-3,2.9632086E-1,-1.5648401E-1,-4.0266705E-1,4.586108E-3,2.5329915E-1,-3.0837227E-2,-3.0515742E-1,4.7056407E-2,3.865599E-3,3.314E-2,-2.019618E-1,1.2728342E-1,2.6303217E-2,2.6647763E-3,-2.6698697E-3,-1.868099E-2,-1.8126264E-1,-3.5039207E-1,7.119547E-4,2.1180747E-2,2.2114753E-3,-2.3161441E-1,-4.227378E-4,-4.4806144E-1,3.137436E-1,-2.1451962E-1,-1.4328037E-1,3.080199E-1,-2.1816416E-2,5.3896205E-3,2.111875E-2,4.3557793E-2,-7.5525143E-3,-1.9666618E-2,1.3549349E-2,-1.5723214E-2,8.515119E-3,-1.3330653E-2,-2.0134982E-2,-3.4833595E-3,-1.3626195E-2,-4.1038464E-3,-2.5451511E-2,-1.8129047E-3,3.1850375E-2,1.2300823E-2,-1.7764077E-2,5.0329785E-3,5.3905E-3,-1.4250054E-2,2.009005E-2,1.2034284E-3,1.2829679E-2,1.8687444E-3],"categories":[],"categories_nodes":[],"categories_segments":[],"categories_sizes":[],"default_left":[0,1,0,0,0,0,0,1,0,0,0,0,1,0,0,0,0,0,0,0,0,0,0,0,0,0,0,1,1,0,0,0,0,0,0,0,0,0,0,0,0,0,0,0,0,0,0,0,0,0,0,0,0,0,0,0,0,0,0,0,0,0,0,0,0,0,0,0,0,0,0,0,0,0,0,0,0],"id":9,"left_children":[1,3,5,7,9,11,13,15,17,19,21,23,25,27,29,31,-1,33,35,-1,37,39,-1,41,43,45,-1,47,49,51,53,-1,-1,55,57,-1,-1,-1,-1,59,61,-1,-1,-1,63,-1,65,67,69,71,73,-1,-1,-1,75,-1,-1,-1,-1,-1,-1,-1,-1,-1,-1,-1,-1,-1,-1,-1,-1,-1,-1,-1,-1,-1,-1],"loss_changes":[6.549871E0,1.7262564E0,1.1041828E0,1.642868E0,1.3099899E0,7.480267E-1,1.0083092E0,6.77228E-1,1.0771333E0,2.5877476E-1,4.7695112E-1,4.743494E-1,4.661076E-1,8.6325264E-1,7.0727795E-1,2.493025E-1,0E0,1.1402154E0,1.9777012E-1,0E0,6.91067E-2,2.0685792E-1,0E0,1.5472135E-1,8.373577E-2,1.9572389E-1,0E0,1.2911224E0,6.1314744E-1,3.6040235E-1,6.102731E-1,0E0,0E0,7.481055E-1,8.6973405E-1,0E0,0E0,0E0,0E0,6.845188E-1,2.2919726E-1,0E0,0E0,0E0,3.066212E-4,0E0,2.3207545E-1,6.91308E-1,2.818125E-1,4.5402694E-1,9.78668E-2,0E0,0E0,0E0,6.1668146E-1,0E0,0E0,0E0,0E0,0E0,0E0,0E0,0E0,0E0,0E0,0E0,0E0,0E0,0E0,0E0,0E0,0E0,0E0,0E0,0E0,0E0,0E0],"parents":[2147483647,0,0,1,1,2,2,3,3,4,4,5,5,6,6,7,7,8,8,9,9,10,10,11,11,12,12,13,13,14,14,15,15,17,17,18,18,20,20,21,21,23,23,24,24,25,25,27,27,28,28,29,29,30,30,33,33,34,34,39,39,40,40,44,44,46,46,47,47,48,48,49,49,50,50,54,54],"right_children":[2,4,6,8,10,12,14,16,18,20,22,24,26,28,30,32,-1,34,36,-1,38,40,-1,42,44,46,-1,48,50,52,54,-1,-1,56,58,-1,-1,-1,-1,60,62,-1,-1,-1,64,-1,66,68,70,72,74,-1,-1,-1,76,-1,-1,-1,-1,-1,-1,-1,-1,-1,-1,-1,-1,-1,-1,-1,-1,-1,-1,-1,-1,-1,-1],"split_conditions":[7E0,2.2632279E-1,5.54E-1,2.233582E0,2.5055494E0,9.760627E0,2.529822E0,1.7700115E-1,1.07152E2,4.4328113E0,1.1444445E1,9.757866E-1,-2.1534681E-2,1.1336449E1,6.5412E1,9.782609E0,-9.405143E-3,1.7583403E1,5.9102464E-1,-3.7796378E-2,-3.452579E0,2E0,9.410364E-3,2.9078953E-2,2.16E-1,1.9465069E0,4.586108E-3,4.301E0,2.698E0,2.94291E-1,-5.4556034E1,3.865599E-3,3.314E-2,8.59E-1,2.698898E1,2.6303217E-2,2.6647763E-3,-2.6698697E-3,-1.868099E-2,-5.5859244E-1,5.098496E0,7.119547E-4,2.1180747E-2,2.2114753E-3,7.9393E1,-4.227378E-4,1.166923E1,1.8257419E0,2E1,-1.8780154E-1,7.360323E-1,-2.1816416E-2,5.3896205E-3,2.111875E-2,9.390445E0,-7.5525143E-3,-1.9666618E-2,1.3549349E-2,-1.5723214E-2,8.515119E-3,-1.3330653E-2,-2.0134982E-2,-3.4833595E-3,-1.3626195E-2,-4.1038464E-3,-2.5451511E-2,-1.8129047E-3,3.1850375E-2,1.2300823E-2,-1.7764077E-2,5.0329785E-3,5.3905E-3,-1.4250054E-2,2.009005E-2,1.2034284E-3,1.2829679E-2,1.8687444E-3],"split_indices":[1,10,3,7,7,12,7,9,2,10,12,8,6,12,2,12,0,5,5,0,9,13,0,10,3,7,0,3,3,9,9,0,0,3,8,0,0,0,0,9,10,0,0,0,2,0,12,7,1,9,5,0,0,0,12,0,0,0,0,0,0,0,0,0,0,0,0,0,0,0,0,0,0,0,0,0,0],"split_type":[0,0,0,0,0,0,0,0,0,0,0,0,0,0,0,0,0,0,0,0,0,0,0,0,0,0,0,0,0,0,0,0,0,0,0,0,0,0,0,0,0,0,0,0,0,0,0,0,0,0,0,0,0,0,0,0,0,0,0,0,0,0,0,0,0,0,0,0,0,0,0,0,0,0,0,0,0],"sum_hessian":[7.0959094E2,1.5141695E2,5.58174E2,1.0201881E2,4.939814E1,1.940465E1,5.3876935E2,5.4288177E0,9.658999E1,1.0786977E1,3.861116E1,7.3504386E0,1.2054211E1,5.621349E1,4.8255588E2,4.3063984E0,1.1224198E0,9.324059E1,3.349398E0,7.0289006E0,3.7580767E0,3.6818558E1,1.7926039E0,3.4768903E0,3.8735483E0,1.0149009E1,1.9052026E0,4.2279583E1,1.3933909E1,4.7852488E0,4.7777063E2,1.2402198E0,3.0661783E0,8.188222E1,1.1358376E1,1.6409553E0,1.7084426E0,1.3098755E0,2.4482012E0,2.0299381E1,1.6519176E1,1.426857E0,2.050033E0,1.1670446E0,2.7065039E0,1.1704947E0,8.978514E0,3.773357E1,4.54601E0,1.0895587E1,3.0383227E0,3.5887063E0,1.1965427E0,3.3067589E0,4.7446387E2,6.608936E1,1.5792857E1,8.862048E0,2.4963274E0,3.7710018E0,1.652838E1,1.3558347E1,2.9608297E0,1.4793484E0,1.2271553E0,7.61499E0,1.3635238E0,5.080182E0,3.265339E1,3.054573E0,1.491437E0,4.0173025E0,6.8782845E0,1.9719944E0,1.0663283E0,1.2239625E1,4.6222424E2],"tree_param":{"num_deleted":"0","num_feature":"17","num_nodes":"77","size_leaf_vector":"1"}},{"base_weights":[5.4795056E-4,-1.3198979E-1,5.231688E-2,-1.8986253E-1,1.3624416E-1,-3.625446E-1,5.8177516E-2,-1.524262E-1,-4.6575674E-1,2.59389E-1,-2.2136638E-1,-2.0302761E-2,-3.972255E-3,3.2888165E-1,5.0341953E-2,-1.7643566E-1,1.9224633E-1,3.9275862E-2,-5.2915365E-1,4.2158654E-1,-1.5868288E-2,-2.9901627E-1,1.0456029E-2,3.6931324E-1,-1.3998245E-3,3.3653268E-1,4.477996E-2,4.9108896E-2,-2.0743051E-1,-7.705639E-2,4.280426E-1,1.0079622E-2,-7.300544E-3,-2.4455571E-1,-6.207492E-1,5.2945596E-1,-9.441543E-2,1.5595213E-2,-1.800737E-1,1.0033055E-3,-3.668646E-1,2.576454E-3,4.20279E-1,2.660316E-2,1.16315484E-1,2.1012135E-1,3.7268877E-2,1.2005641E-2,-1.1363829E-2,-1.4036978E-2,-5.3301286E-3,9.35275E-3,-1.5592712E-2,2.5303736E-2,3.8823818E-3,-2.0786235E-2,2.5262355E-3,-3.3658996E-2,-9.461973E-3,3.14816E-2,-3.520501E-4,-1.0129957E-2,4.2426153E-3,-2.3276106E-2,5.7880394E-4,-2.1991983E-2,-4.2887772E-3,2.38447E-2,8.7101915E-4,-3.6105525E-3,9.252673E-3,2.2641605E-2,4.7114226E-3,-4.472259E-3,2.5224795E-3],"categories":[],"categories_nodes":[],"categories_segments":[],"categories_sizes":[],"default_left":[1,1,0,0,0,0,0,1,0,0,0,0,0,0,1,0,0,0,1,1,0,0,0,0,0,1,0,1,0,0,0,0,0,0,0,0,0,0,0,0,0,0,0,0,0,0,0,0,0,0,0,0,0,0,0,0,0,0,0,0,0,0,0,0,0,0,0,0,0,0,0,0,0,0,0],"id":10,"left_children":[1,3,5,7,9,11,13,15,17,19,21,-1,-1,23,25,27,29,31,33,35,37,39,-1,41,-1,43,45,47,49,51,53,-1,-1,55,57,59,61,-1,63,-1,65,-1,67,-1,69,71,73,-1,-1,-1,-1,-1,-1,-1,-1,-1,-1,-1,-1,-1,-1,-1,-1,-1,-1,-1,-1,-1,-1,-1,-1,-1,-1,-1,-1],"loss_changes":[4.872812E0,3.1224983E0,1.2627752E0,1.628016E0,1.6420462E0,5.7072937E-2,1.0534303E0,1.2448609E0,6.344795E-1,1.2222517E0,3.8866708E-1,0E0,0E0,2.1248794E-1,7.671914E-1,9.701686E-1,6.684932E-1,1.2172487E-1,2.939229E-1,1.0055709E0,6.513672E-1,1.9521624E-1,0E0,1.8329728E-1,0E0,3.3491397E-1,5.9227586E-1,9.731159E-1,8.638835E-1,4.0061137E-1,1.1077082E-1,0E0,0E0,3.1462637E-1,1.5056086E-1,7.757096E-1,9.1218434E-2,0E0,4.4312888E-1,0E0,1.1011678E-1,0E0,2.3723602E-1,0E0,8.611182E-2,5.418978E-1,7.78537E-1,0E0,0E0,0E0,0E0,0E0,0E0,0E0,0E0,0E0,0E0,0E0,0E0,0E0,0E0,0E0,0E0,0E0,0E0,0E0,0E0,0E0,0E0,0E0,0E0,0E0,0E0,0E0,0E0],"parents":[2147483647,0,0,1,1,2,2,3,3,4,4,5,5,6,6,7,7,8,8,9,9,10,10,13,13,14,14,15,15,16,16,17,17,18,18,19,19,20,20,21,21,23,23,25,25,26,26,27,27,28,28,29,29,30,30,33,33,34,34,35,35,36,36,38,38,40,40,42,42,44,44,45,45,46,46],"right_children":[2,4,6,8,10,12,14,16,18,20,22,-1,-1,24,26,28,30,32,34,36,38,40,-1,42,-1,44,46,48,50,52,54,-1,-1,56,58,60,62,-1,64,-1,66,-1,68,-1,70,72,74,-1,-1,-1,-1,-1,-1,-1,-1,-1,-1,-1,-1,-1,-1,-1,-1,-1,-1,-1,-1,-1,-1,-1,-1,-1,-1,-1,-1],"split_conditions":[9.2E0,1.542E0,2.97E-1,4.2369404E1,5.375872E0,1.3E1,-2.7516793E-2,4.8125957E1,3.9219177E-1,2.221E0,1.8450027E1,-2.0302761E-2,-3.972255E-3,2.386E0,3.71E-1,2.4698179E0,5.1218486E0,7.7558E1,7.6612E1,3.722352E-2,7E0,7.8703E1,1.0456029E-2,-8.308954E-1,-1.3998245E-3,1.4971729E-1,-6.1912637E-2,8.053162E-1,7.3E0,3.0667827E0,9.811579E0,1.0079622E-2,-7.300544E-3,4.493948E0,1E1,8.625E0,6.955311E-2,1.5595213E-2,5.7328725E-1,1.0033055E-3,3.2489983E1,2.576454E-3,1.1501802E1,2.660316E-2,7.47238E-1,3.3208098E0,1.2219592E0,1.2005641E-2,-1.1363829E-2,-1.4036978E-2,-5.3301286E-3,9.35275E-3,-1.5592712E-2,2.5303736E-2,3.8823818E-3,-2.0786235E-2,2.5262355E-3,-3.3658996E-2,-9.461973E-3,3.14816E-2,-3.520501E-4,-1.0129957E-2,4.2426153E-3,-2.3276106E-2,5.7880394E-4,-2.1991983E-2,-4.2887772E-3,2.38447E-2,8.7101915E-4,-3.6105525E-3,9.252673E-3,2.2641605E-2,4.7114226E-3,-4.472259E-3,2.5224795E-3],"split_indices":[4,3,3,8,7,4,6,9,5,3,8,0,0,3,3,7,7,2,2,6,15,2,0,9,0,9,14,10,4,10,11,0,0,6,0,4,6,0,5,0,5,0,11,0,5,7,14,0,0,0,0,0,0,0,0,0,0,0,0,0,0,0,0,0,0,0,0,0,0,0,0,0,0,0,0],"split_type":[0,0,0,0,0,0,0,0,0,0,0,0,0,0,0,0,0,0,0,0,0,0,0,0,0,0,0,0,0,0,0,0,0,0,0,0,0,0,0,0,0,0,0,0,0,0,0,0,0,0,0,0,0,0,0,0,0,0,0,0,0,0,0,0,0,0,0,0,0,0,0,0,0,0,0],"sum_hessian":[7.081777E2,1.9848103E2,5.0969662E2,1.6349779E2,3.4983242E1,6.252255E0,5.0344437E2,1.4533028E2,1.8167515E1,2.6226639E1,8.756603E0,5.0428767E0,1.2093785E0,1.3009724E1,4.9043463E2,1.3632234E2,9.007938E0,2.068657E0,1.6098858E1,1.6167942E1,1.0058697E1,7.677212E0,1.0793915E0,1.1654511E1,1.3552125E0,8.215256E0,4.822194E2,1.6399729E1,1.1992261E2,4.519467E0,4.4884715E0,1.0557694E0,1.0128875E0,4.8133054E0,1.1285553E1,1.3350885E1,2.8170562E0,3.0570345E0,7.0016627E0,1.4696901E0,6.207522E0,1.8887478E0,9.765763E0,3.6014507E0,4.6138053E0,1.9782074E1,4.6243732E2,9.775402E0,6.624326E0,6.840385E1,5.1518764E1,2.2226567E0,2.2968102E0,3.3075824E0,1.1808891E0,2.7874951E0,2.0258102E0,9.56348E0,1.7220721E0,1.1103933E1,2.2469518E0,1.6756773E0,1.1413789E0,2.2385218E0,4.763141E0,4.479742E0,1.7277801E0,8.401323E0,1.36444E0,1.2192532E0,3.3945522E0,5.4535494E0,1.4328525E1,4.302512E1,4.194122E2],"tree_param":{"num_deleted":"0","num_feature":"17","num_nodes":"75","size_leaf_vector":"1"}},{"base_weights":[-1.1221127E-2,-2.6862735E-1,2.0073023E-2,-3.7994167E-1,-1.3608614E-1,-3.5748143E-2,7.2870255E-2,-4.317098E-1,3.7918344E-2,-2.1422844E-1,1.8175167E-1,-9.232557E-2,4.6643674E-2,1.7846769E-1,4.2692557E-2,6.1258944E-3,-4.580789E-1,1.8501585E-2,-1.7234424E-1,-3.6931315E-1,-4.633662E-2,3.2231554E-1,-1.3876975E-2,-2.9953957E-2,-1.8408164E-1,-1.7574763E-2,1.4742774E-1,2.0130433E-1,-1.7558573E-2,1.2865378E-1,8.093675E-4,-4.8646882E-1,5.8226353E-3,6.193277E-3,-1.8961953E-2,-4.9267608E-1,-2.6384622E-3,1.2449787E-1,-3.0036527E-1,2.5996411E-2,2.4227098E-2,1.1294388E-1,-8.500143E-2,2.1153515E-2,-2.1292356E-1,1.6317692E-1,-1.0294275E-1,2.7640358E-1,-4.5184262E-2,3.92131E-1,1.19767554E-1,1.9834316E-1,-9.8573886E-2,-2.915628E-1,2.622612E-2,1.6572574E-3,-2.5860041E-2,-2.6952868E-2,-9.575177E-3,2.4524404E-2,-1.8412968E-2,1.8467018E-2,-7.117212E-3,-5.6686397E-3,-1.8629318E-2,9.629774E-3,-7.2922404E-3,1.5323487E-2,-3.1155702E-3,-1.9109068E-2,-2.113675E-3,-1.2352789E-2,6.1344816E-3,-9.973667E-3,1.328295E-2,-9.107575E-3,8.307098E-3,4.6727012E-4,1.9448841E-2,1.4499016E-2,-1.6754078E-2,9.097133E-3,3.0261992E-2,3.336132E-3,2.0365942E-2,-8.55901E-4,1.3917274E-2,-8.169555E-3,1.0814476E-2,-2.0773282E-2,5.3044506E-3,2.8124915E-3,-5.8241505E-3],"categories":[],"categories_nodes":[],"categories_segments":[],"categories_sizes":[],"default_left":[0,1,0,0,1,0,1,0,0,0,1,1,0,1,1,0,1,0,0,0,0,0,0,0,0,0,0,0,0,0,0,0,0,0,0,0,0,0,0,0,0,0,0,0,1,0,0,0,0,0,0,0,0,0,0,0,0,0,0,0,0,0,0,0,0,0,0,0,0,0,0,0,0,0,0,0,0,0,0,0,0,0,0,0,0,0,0,0,0,0,0,0,0],"id":11,"left_children":[1,3,5,7,9,11,13,15,17,19,21,23,25,27,29,-1,31,-1,33,35,37,39,-1,41,43,45,47,49,-1,51,53,55,-1,-1,-1,57,59,61,63,-1,65,67,69,-1,71,73,75,77,79,81,83,85,87,89,91,-1,-1,-1,-1,-1,-1,-1,-1,-1,-1,-1,-1,-1,-1,-1,-1,-1,-1,-1,-1,-1,-1,-1,-1,-1,-1,-1,-1,-1,-1,-1,-1,-1,-1,-1,-1,-1,-1],"loss_changes":[5.788482E0,1.0974627E0,1.8918592E0,9.200816E-1,9.606959E-1,1.459931E0,1.0432504E0,6.005502E-1,4.4954896E-1,7.704718E-1,5.9720784E-1,1.0559273E0,8.296983E-1,9.5340705E-1,9.280178E-1,0E0,6.401181E-1,0E0,2.9609615E-1,7.0346165E-1,7.173289E-1,3.6938328E-1,0E0,8.875384E-1,1.4010005E0,1.2350354E0,1.250716E0,1.0515237E0,0E0,1.3568118E0,1.3031951E0,5.64559E-1,0E0,0E0,0E0,5.9542656E-2,1.0690606E0,7.1080774E-1,4.679531E-2,0E0,1.3214655E-1,1.0863575E0,1.0141761E0,0E0,8.565893E-1,1.0086265E0,1.1862686E0,8.9808655E-1,2.1229932E0,8.16895E-1,7.4927086E-1,1.1244888E0,4.5348555E-1,7.351526E-1,6.9772714E-1,0E0,0E0,0E0,0E0,0E0,0E0,0E0,0E0,0E0,0E0,0E0,0E0,0E0,0E0,0E0,0E0,0E0,0E0,0E0,0E0,0E0,0E0,0E0,0E0,0E0,0E0,0E0,0E0,0E0,0E0,0E0,0E0,0E0,0E0,0E0,0E0,0E0,0E0],"parents":[2147483647,0,0,1,1,2,2,3,3,4,4,5,5,6,6,7,7,8,8,9,9,10,10,11,11,12,12,13,13,14,14,16,16,18,18,19,19,20,20,21,21,23,23,24,24,25,25,26,26,27,27,29,29,30,30,31,31,35,35,36,36,37,37,38,38,40,40,41,41,42,42,44,44,45,45,46,46,47,47,48,48,49,49,50,50,51,51,52,52,53,53,54,54],"right_children":[2,4,6,8,10,12,14,16,18,20,22,24,26,28,30,-1,32,-1,34,36,38,40,-1,42,44,46,48,50,-1,52,54,56,-1,-1,-1,58,60,62,64,-1,66,68,70,-1,72,74,76,78,80,82,84,86,88,90,92,-1,-1,-1,-1,-1,-1,-1,-1,-1,-1,-1,-1,-1,-1,-1,-1,-1,-1,-1,-1,-1,-1,-1,-1,-1,-1,-1,-1,-1,-1,-1,-1,-1,-1,-1,-1,-1,-1],"split_conditions":[3.74E-1,-8.213304E-2,1.3E1,1.26E1,2E0,1.21E1,7.333787E-1,9.3065815E0,1.29E1,1.34E-1,1.0686996E0,-8.293609E-3,8.7062275E-1,1.3712529E0,1.1875E1,6.1258944E-3,4.972146E0,1.8501585E-2,1.0612569E1,8.965E1,3.19E-1,9.558036E0,-1.3876975E-2,6E0,-1.3031107E-1,7.0140606E-1,1.4111111E1,8.0062E1,-1.7558573E-2,2.413E0,1.22E1,-7.114216E1,5.8226353E-3,6.193277E-3,-1.8961953E-2,7.9E0,9.115E1,8.2824E1,9.558036E0,2.5996411E-2,-4.5294832E-2,4.4221663E0,2.0785538E-2,2.1153515E-2,2.2956357E0,-4.2483848E-1,1.0177369E0,3.3208098E0,3.5962944E0,1.12348995E1,1.03574E2,1.542E0,3.0671726E1,2.571E0,1.0519791E1,1.6572574E-3,-2.5860041E-2,-2.6952868E-2,-9.575177E-3,2.4524404E-2,-1.8412968E-2,1.8467018E-2,-7.117212E-3,-5.6686397E-3,-1.8629318E-2,9.629774E-3,-7.2922404E-3,1.5323487E-2,-3.1155702E-3,-1.9109068E-2,-2.113675E-3,-1.2352789E-2,6.1344816E-3,-9.973667E-3,1.328295E-2,-9.107575E-3,8.307098E-3,4.6727012E-4,1.9448841E-2,1.4499016E-2,-1.6754078E-2,9.097133E-3,3.0261992E-2,3.336132E-3,2.0365942E-2,-8.55901E-4,1.3917274E-2,-8.169555E-3,1.0814476E-2,-2.0773282E-2,5.3044506E-3,2.8124915E-3,-5.8241505E-3],"split_indices":[3,9,0,4,15,4,11,12,4,3,10,9,9,9,4,0,6,0,11,2,3,12,0,0,14,8,4,2,0,3,4,9,0,0,0,4,2,2,12,0,14,7,10,0,10,9,8,7,7,12,2,3,8,3,11,0,0,0,0,0,0,0,0,0,0,0,0,0,0,0,0,0,0,0,0,0,0,0,0,0,0,0,0,0,0,0,0,0,0,0,0,0,0],"split_type":[0,0,0,0,0,0,0,0,0,0,0,0,0,0,0,0,0,0,0,0,0,0,0,0,0,0,0,0,0,0,0,0,0,0,0,0,0,0,0,0,0,0,0,0,0,0,0,0,0,0,0,0,0,0,0,0,0,0,0,0,0,0,0,0,0,0,0,0,0,0,0,0,0,0,0,0,0,0,0,0,0,0,0,0,0,0,0,0,0,0,0,0,0],"sum_hessian":[7.1692285E2,7.6889946E1,6.400329E2,4.077696E1,3.6112988E1,3.1126416E2,3.287687E2,3.6252537E1,4.5244246E0,2.9248142E1,6.864846E0,1.8447021E2,1.2679395E2,7.198073E1,2.56788E2,1.4808855E0,3.477165E1,1.4594086E0,3.065016E0,1.4580324E1,1.4667818E1,5.484556E0,1.38029E0,1.1060942E2,7.38608E1,7.795045E1,4.8843502E1,6.959969E1,2.3810327E0,8.344776E1,1.7334023E2,3.3280407E1,1.4912423E0,1.4254793E0,1.6395369E0,1.0652721E1,3.9276025E0,9.074867E0,5.59295E0,2.850595E0,2.6339612E0,3.046737E1,8.014205E1,2.7296772E0,7.113113E1,2.4713182E1,5.3237267E1,2.89938E1,1.9849703E1,1.9695524E1,4.990417E1,6.3959026E1,1.9488737E1,1.3026255E1,1.6031398E2,1.854035E0,3.1426373E1,8.546655E0,2.1060667E0,1.5268127E0,2.4007897E0,4.532203E0,4.5426645E0,2.2742743E0,3.3186758E0,1.2570584E0,1.3769028E0,1.4123154E1,1.6344213E1,9.07555E0,7.10665E1,6.480432E1,6.326801E0,5.2365046E0,1.9476677E1,4.137967E1,1.1857597E1,8.918768E0,2.0075031E1,9.2059555E0,1.0643747E1,1.0848977E1,8.846547E0,4.3172188E1,6.731986E0,1.7530943E1,4.642808E1,1.6560661E1,2.9280748E0,9.897525E0,3.1287305E0,1.329494E2,2.7364574E1],"tree_param":{"num_deleted":"0","num_feature":"17","num_nodes":"93","size_leaf_vector":"1"}},{"base_weights":[1.5249616E-3,-1.505172E-1,4.8544265E-2,-1.2575458E-1,-4.9817237E-1,-1.2422719E-1,6.283883E-2,2.927699E-1,-1.3764367E-1,3.4128868E-3,-5.656804E-1,2.3001565E-2,-1.6046531E-1,4.0417847E-1,5.643833E-2,-7.642924E-4,2.2949036E-2,1.6121002E-1,-1.5341076E-1,-3.5223927E-2,-1.9163902E-1,-6.2434833E-2,-2.732894E-1,4.787861E-1,3.2101125E-3,-4.844898E-2,7.155551E-2,2.5382949E-2,-1.6844209E-1,-1.7509808E-1,9.123567E-2,-2.2573186E-2,7.963995E-3,-2.0238872E-1,1.4664732E-1,3.553293E-3,-3.5778692E-1,3.4065753E-2,1.7538422E-1,-1.9312593E-1,1.2544146E-1,3.7439734E-1,5.6990627E-2,-1.34139685E-2,3.8037281E-3,-2.1909777E-2,-7.46574E-3,1.687197E-2,-1.5495943E-2,-1.3518362E-2,-7.5709797E-4,-8.43196E-3,1.9735707E-2,-1.2118936E-2,1.0604629E-2,3.4011836E-4,-1.962598E-2,1.164113E-2,1.5483293E-3,-1.3229474E-2,1.30038215E-2,8.741299E-3,-8.655446E-3,3.359575E-2,1.3943719E-3,3.1205094E-3,-1.6395627E-2],"categories":[],"categories_nodes":[],"categories_segments":[],"categories_sizes":[],"default_left":[0,0,1,0,0,0,0,0,0,0,0,0,1,0,0,0,0,0,0,0,0,1,0,0,0,1,0,0,0,0,0,0,0,1,0,0,0,0,0,1,1,0,1,0,0,0,0,0,0,0,0,0,0,0,0,0,0,0,0,0,0,0,0,0,0,0,0],"id":12,"left_children":[1,3,5,7,9,11,13,15,17,-1,19,-1,21,23,25,-1,-1,27,29,-1,31,33,35,37,-1,39,41,-1,43,45,47,-1,-1,49,51,53,55,-1,57,59,61,63,65,-1,-1,-1,-1,-1,-1,-1,-1,-1,-1,-1,-1,-1,-1,-1,-1,-1,-1,-1,-1,-1,-1,-1,-1],"loss_changes":[5.0375805E0,1.3702741E0,1.3369799E0,8.20106E-1,4.4889975E-1,9.5166546E-1,1.0646058E0,2.4504092E-1,7.460017E-1,0E0,3.6830902E-1,0E0,4.2293084E-1,1.9751763E-1,7.7998805E-1,0E0,0E0,1.0172857E0,7.9013586E-1,0E0,4.3639344E-1,6.9048595E-1,4.269966E-1,3.244462E-1,0E0,1.5912849E0,1.8684692E0,0E0,1.4079662E-1,8.460827E-1,1.3429824E0,0E0,0E0,1.7344284E-1,8.201236E-1,3.204533E-1,1.793623E-1,0E0,2.795121E-2,1.1827542E0,4.5627946E-1,1.9895647E0,8.756522E-1,0E0,0E0,0E0,0E0,0E0,0E0,0E0,0E0,0E0,0E0,0E0,0E0,0E0,0E0,0E0,0E0,0E0,0E0,0E0,0E0,0E0,0E0,0E0,0E0],"parents":[2147483647,0,0,1,1,2,2,3,3,4,4,5,5,6,6,7,7,8,8,10,10,12,12,13,13,14,14,17,17,18,18,20,20,21,21,22,22,23,23,25,25,26,26,28,28,29,29,30,30,33,33,34,34,35,35,36,36,38,38,39,39,40,40,41,41,42,42],"right_children":[2,4,6,8,10,12,14,16,18,-1,20,-1,22,24,26,-1,-1,28,30,-1,32,34,36,38,-1,40,42,-1,44,46,48,-1,-1,50,52,54,56,-1,58,60,62,64,66,-1,-1,-1,-1,-1,-1,-1,-1,-1,-1,-1,-1,-1,-1,-1,-1,-1,-1,-1,-1,-1,-1,-1,-1],"split_conditions":[7.42E-1,2.6646938E1,5.1880676E-1,7.1701187E-1,3E0,8.11E-1,9.358429E0,5.81E-1,-6.421287E-2,3.4128868E-3,2E0,2.3001565E-2,4.0769823E-2,9.727823E0,9.514235E0,-7.642924E-4,2.2949036E-2,-6.218608E-1,1.9596836E1,-3.5223927E-2,-5.373E0,3.1071924E-2,1.436507E-2,9.0836E1,3.2101125E-3,1.665E0,9.558036E0,2.5382949E-2,-1.0021908E-1,4.4E-2,4E0,-2.2573186E-2,7.963995E-3,-3.9566927E-2,9.618519E0,9.462745E0,6.5412E1,3.4065753E-2,3.3300745E-1,9.4703E1,3E0,1.393E0,2.197214E0,-1.34139685E-2,3.8037281E-3,-2.1909777E-2,-7.46574E-3,1.687197E-2,-1.5495943E-2,-1.3518362E-2,-7.5709797E-4,-8.43196E-3,1.9735707E-2,-1.2118936E-2,1.0604629E-2,3.4011836E-4,-1.962598E-2,1.164113E-2,1.5483293E-3,-1.3229474E-2,1.30038215E-2,8.741299E-3,-8.655446E-3,3.359575E-2,1.3943719E-3,3.1205094E-3,-1.6395627E-2],"split_indices":[3,5,5,11,15,3,12,3,14,0,13,0,9,11,12,0,0,9,5,0,9,10,10,2,0,3,12,0,14,3,0,0,0,14,12,12,2,0,9,2,15,3,10,0,0,0,0,0,0,0,0,0,0,0,0,0,0,0,0,0,0,0,0,0,0,0,0],"split_type":[0,0,0,0,0,0,0,0,0,0,0,0,0,0,0,0,0,0,0,0,0,0,0,0,0,0,0,0,0,0,0,0,0,0,0,0,0,0,0,0,0,0,0,0,0,0,0,0,0,0,0,0,0,0,0,0,0,0,0,0,0,0,0,0,0,0,0],"sum_hessian":[7.026415E2,1.6544746E2,5.3719403E2,1.557178E2,9.729673E0,4.0461758E1,4.9673227E2,3.648727E0,1.5206908E2,1.03493E0,8.694743E0,1.6800499E0,3.8781708E1,7.9989457E0,4.887333E2,1.5969558E0,2.051771E0,7.158603E0,1.4491046E2,5.6972146E0,2.997529E0,2.1582506E1,1.7199203E1,6.2246547E0,1.774291E0,6.128884E1,4.2744446E2,3.227094E0,3.931509E0,1.3337167E2,1.1538796E1,1.5576828E0,1.4398463E0,1.2947689E1,8.634816E0,4.245955E0,1.2953249E1,2.9859E0,3.238755E0,3.3394215E1,2.7894627E1,1.8480534E1,4.0896393E2,2.722654E0,1.208855E0,1.047611E1,1.2289556E2,7.248777E0,4.29002E0,9.173434E0,3.774254E0,3.9432428E0,4.6915736E0,1.8738455E0,2.3721094E0,1.1966056E0,1.1756643E1,1.8792027E0,1.3595521E0,2.9205156E1,4.1890583E0,2.429097E1,3.6036575E0,9.437924E0,9.042609E0,4.0411176E2,4.8521667E0],"tree_param":{"num_deleted":"0","num_feature":"17","num_nodes":"67","size_leaf_vector":"1"}},{"base_weights":[3.2468238E-3,-1.3156186E-1,4.818004E-2,-1.5861008E-1,8.323618E-2,5.4685835E-2,-2.6840416E-1,-1.3924819E-1,-4.5505998E-1,-8.454918E-2,3.1826937E-1,2.2924115E-1,4.5422953E-2,5.316609E-3,-3.3207822E-1,-1.6306216E-1,7.726171E-2,-5.4935277E-1,3.7942552E-3,1.9346293E-2,-1.9168824E-1,-6.83838E-3,4.5200318E-1,7.56541E-2,4.302771E-1,-1.3594161E-1,5.628722E-2,-1.9148462E-2,-6.4793276E-3,-1.9490227E-1,1.2879512E-1,2.8451335E-1,-3.3623526E-1,-3.0335248E-2,-4.406643E-3,1.4219347E-2,-2.4478486E-2,2.7270013E-2,1.3595232E-3,-7.91062E-2,3.9928976E-1,8.56592E-2,5.1353616E-1,-1.7402025E-2,-3.4420386E-1,6.284164E-2,-1.762631E-1,-5.697613E-3,-1.4237559E-2,3.31895E-2,-1.6947916E-3,2.475453E-2,-1.1857039E-2,2.892648E-4,-2.0710291E-2,6.234055E-3,-1.543926E-2,1.984948E-2,-9.475315E-3,2.9705307E-2,6.097014E-3,-5.2567157E-3,1.1880728E-2,3.0225003E-2,9.41806E-3,2.6236647E-3,-1.2649794E-2,-2.1466238E-2,2.8348526E-3,-2.5263268E-3,3.734722E-3,-8.243769E-4,-1.7855007E-2],"categories":[],"categories_nodes":[],"categories_segments":[],"categories_sizes":[],"default_left":[0,0,0,0,0,0,0,0,1,0,0,0,0,0,0,0,0,0,0,0,0,0,0,1,1,0,1,0,0,0,0,0,0,0,0,0,0,0,0,0,0,0,0,0,0,0,0,0,0,0,0,0,0,0,0,0,0,0,0,0,0,0,0,0,0,0,0,0,0,0,0,0,0],"id":13,"left_children":[1,3,5,7,9,11,13,15,17,19,21,23,25,-1,27,29,31,33,-1,-1,35,-1,37,39,41,43,45,-1,-1,47,49,51,53,-1,-1,55,-1,-1,-1,57,59,61,63,65,67,69,71,-1,-1,-1,-1,-1,-1,-1,-1,-1,-1,-1,-1,-1,-1,-1,-1,-1,-1,-1,-1,-1,-1,-1,-1,-1,-1],"loss_changes":[4.3233256E0,1.0498595E0,1.1171E0,8.482218E-1,8.397254E-1,8.389447E-1,2.965213E-1,7.8868365E-1,5.070821E-1,7.215646E-1,5.9703845E-1,7.7714777E-1,9.93008E-1,0E0,4.9298167E-2,1.2882509E0,1.4320291E0,1.585517E-1,0E0,0E0,6.885211E-1,0E0,2.640829E-1,8.369496E-1,2.7576566E-1,6.98983E-1,7.313142E-1,0E0,0E0,8.618412E-1,1.2386516E0,1.3179593E0,1.5346086E-1,0E0,0E0,3.0759698E-1,0E0,0E0,0E0,6.908549E-1,2.1755022E-1,1.2264716E-1,1.4570737E-1,3.30194E-1,3.7599277E-1,6.223053E-1,3.7596178E-1,0E0,0E0,0E0,0E0,0E0,0E0,0E0,0E0,0E0,0E0,0E0,0E0,0E0,0E0,0E0,0E0,0E0,0E0,0E0,0E0,0E0,0E0,0E0,0E0,0E0,0E0],"parents":[2147483647,0,0,1,1,2,2,3,3,4,4,5,5,6,6,7,7,8,8,9,9,10,10,11,11,12,12,14,14,15,15,16,16,17,17,20,20,22,22,23,23,24,24,25,25,26,26,29,29,30,30,31,31,32,32,35,35,39,39,40,40,41,41,42,42,43,43,44,44,45,45,46,46],"right_children":[2,4,6,8,10,12,14,16,18,20,22,24,26,-1,28,30,32,34,-1,-1,36,-1,38,40,42,44,46,-1,-1,48,50,52,54,-1,-1,56,-1,-1,-1,58,60,62,64,66,68,70,72,-1,-1,-1,-1,-1,-1,-1,-1,-1,-1,-1,-1,-1,-1,-1,-1,-1,-1,-1,-1,-1,-1,-1,-1,-1,-1],"split_conditions":[8E0,1.28E1,4.2369404E1,3.2489983E1,4.2804465E0,9.430743E0,1.8885621E0,1.9596836E1,4.972146E0,3E0,7.7393E1,9.769014E-1,9.461187E0,5.316609E-3,1.1433931E1,1.01798E2,1E0,4E0,3.7942552E-3,1.9346293E-2,7.95E-1,-6.83838E-3,8.6998725E-1,2.386E0,7.2728E1,8.2521343E-1,1.6444445E1,-1.9148462E-2,-6.4793276E-3,2.3661354E0,9.453988E0,7.8E0,3.4E0,-3.0335248E-2,-4.406643E-3,9.686198E0,-2.4478486E-2,2.7270013E-2,1.3595232E-3,8E0,9.2121E1,2E1,9.0836E1,8.704677E-1,9.762482E0,8.6E0,1.13E1,-5.697613E-3,-1.4237559E-2,3.31895E-2,-1.6947916E-3,2.475453E-2,-1.1857039E-2,2.892648E-4,-2.0710291E-2,6.234055E-3,-1.543926E-2,1.984948E-2,-9.475315E-3,2.9705307E-2,6.097014E-3,-5.2567157E-3,1.1880728E-2,3.0225003E-2,9.41806E-3,2.6236647E-3,-1.2649794E-2,-2.1466238E-2,2.8348526E-3,-2.5263268E-3,3.734722E-3,-8.243769E-4,-1.7855007E-2],"split_indices":[1,4,8,5,7,12,7,5,6,1,2,5,12,0,11,2,13,1,0,0,3,0,5,3,2,5,4,0,0,10,12,4,4,0,0,11,0,0,0,15,2,0,2,8,11,4,12,0,0,0,0,0,0,0,0,0,0,0,0,0,0,0,0,0,0,0,0,0,0,0,0,0,0],"split_type":[0,0,0,0,0,0,0,0,0,0,0,0,0,0,0,0,0,0,0,0,0,0,0,0,0,0,0,0,0,0,0,0,0,0,0,0,0,0,0,0,0,0,0,0,0,0,0,0,0,0,0,0,0,0,0,0,0,0,0,0,0,0,0,0,0,0,0,0,0,0,0,0,0],"sum_hessian":[7.116813E2,1.7742941E2,5.342519E2,1.5781795E2,1.961147E1,5.243047E2,9.9471855E0,1.49522E2,8.295935E0,1.1816314E1,7.7951565E0,2.5223808E1,4.990809E2,1.3474123E0,8.599772E0,1.349281E2,1.4593909E1,7.0153747E0,1.2805603E0,1.704421E0,1.0111893E1,1.7654446E0,6.0297117E0,1.5079626E1,1.0144181E1,2.7556074E1,4.715248E2,6.160266E0,2.4395065E0,1.2195558E2,1.2972522E1,9.929173E0,4.6647353E0,5.958951E0,1.0564237E0,6.542039E0,3.5698538E0,4.710275E0,1.3194368E0,1.0712537E1,4.3670893E0,2.368702E0,7.77548E0,1.8251287E1,9.304788E0,4.59309E2,1.2215831E1,6.5348045E1,5.6607533E1,2.3067873E0,1.0665735E1,7.10999E0,2.8191833E0,1.0378728E0,3.6268628E0,5.332437E0,1.2096019E0,1.5278465E0,9.18469E0,1.8943626E0,2.4727268E0,1.1867522E0,1.1819496E0,5.404605E0,2.370875E0,1.4675823E1,3.575464E0,7.616683E0,1.6881045E0,4.3167072E1,4.161419E2,7.064915E0,5.150915E0],"tree_param":{"num_deleted":"0","num_feature":"17","num_nodes":"73","size_leaf_vector":"1"}},{"base_weights":[-3.2070183E-4,-2.2898474E-1,2.8024936E-2,-1.587463E-1,-4.222277E-1,-7.4119195E-2,4.6898987E-2,-1.144575E-1,-4.6535215E-1,-4.4685376E-1,-5.922117E-3,3.886866E-2,-1.3817483E-1,2.9986523E-2,1.4332993E-1,-7.708424E-3,-2.8939384E-1,-5.226788E-1,-3.6958978E-3,-7.2869393E-3,-4.7023568E-1,-3.210516E-2,3.3664346E-2,-2.7082067E-2,-2.787343E-1,-9.796748E-3,7.5650126E-2,2.715477E-1,6.5189905E-2,2.857136E-1,-1.3824676E-1,-3.592816E-1,1.8113092E-2,-3.1035898E-2,-3.2601338E-3,-5.034203E-1,-7.5765103E-3,2.5308503E-2,-8.793191E-2,-7.9214014E-2,2.6486857E-2,-3.4725285E-1,1.2586859E-1,-1.8288023E-4,-2.3757746E-2,1.4837465E-1,1.8854322E-2,1.8881138E-1,5.2820575E-1,1.2878282E-1,-1.3502933E-1,-7.4063167E-3,3.5272934E-2,-1.3583439E-2,2.962782E-3,-2.2646178E-2,-3.8278995E-3,-6.4084157E-3,-2.6109723E-2,-6.919164E-3,1.6395142E-2,-8.39617E-3,6.1678626E-3,2.551186E-3,-1.969981E-2,1.601678E-2,-9.7685605E-3,2.401214E-3,-3.8185124E-3,1.0166409E-2,-2.2425218E-3,-9.216203E-3,3.135205E-3,-5.6102574E-3,1.1695906E-2,3.079158E-2,1.1231216E-2,4.125221E-3,2.7019233E-2,-1.2876351E-2,2.4846704E-3],"categories":[],"categories_nodes":[],"categories_segments":[],"categories_sizes":[],"default_left":[0,0,0,0,0,0,0,0,0,0,0,0,0,0,1,0,0,0,0,0,0,0,0,0,1,0,0,1,1,0,1,0,0,0,0,0,0,0,1,0,0,0,0,0,0,0,1,0,0,0,0,0,0,0,0,0,0,0,0,0,0,0,0,0,0,0,0,0,0,0,0,0,0,0,0,0,0,0,0,0,0],"id":14,"left_children":[1,3,5,7,9,11,13,15,17,19,-1,21,23,25,27,29,31,33,-1,-1,35,37,-1,39,41,43,45,47,49,51,53,55,-1,-1,-1,57,-1,-1,59,61,-1,63,65,67,-1,69,71,73,75,77,79,-1,-1,-1,-1,-1,-1,-1,-1,-1,-1,-1,-1,-1,-1,-1,-1,-1,-1,-1,-1,-1,-1,-1,-1,-1,-1,-1,-1,-1,-1],"loss_changes":[4.520614E0,9.770384E-1,1.1997958E0,7.34583E-1,9.5970154E-2,7.0861775E-1,8.508915E-1,9.692405E-1,1.18368626E-1,5.855298E-2,0E0,1.639718E0,9.641944E-1,8.134953E-1,7.6356685E-1,1.3163131E0,1.0267596E0,2.2586024E-1,0E0,0E0,9.611082E-2,1.0444249E0,0E0,1.0830954E0,8.023255E-1,1.0735397E0,8.5805535E-1,5.205822E-1,6.510527E-1,2.0329442E0,6.4180136E-1,4.4934583E-1,0E0,0E0,0E0,3.4044266E-2,0E0,0E0,6.957414E-1,6.256887E-1,0E0,4.607153E-1,3.5600442E-1,8.7088E-1,0E0,9.780152E-1,1.0643688E0,3.4732372E-1,3.630495E-2,6.8463206E-1,2.9530376E-1,0E0,0E0,0E0,0E0,0E0,0E0,0E0,0E0,0E0,0E0,0E0,0E0,0E0,0E0,0E0,0E0,0E0,0E0,0E0,0E0,0E0,0E0,0E0,0E0,0E0,0E0,0E0,0E0,0E0,0E0],"parents":[2147483647,0,0,1,1,2,2,3,3,4,4,5,5,6,6,7,7,8,8,9,9,11,11,12,12,13,13,14,14,15,15,16,16,17,17,20,20,21,21,23,23,24,24,25,25,26,26,27,27,28,28,29,29,30,30,31,31,35,35,38,38,39,39,41,41,42,42,43,43,45,45,46,46,47,47,48,48,49,49,50,50],"right_children":[2,4,6,8,10,12,14,16,18,20,-1,22,24,26,28,30,32,34,-1,-1,36,38,-1,40,42,44,46,48,50,52,54,56,-1,-1,-1,58,-1,-1,60,62,-1,64,66,68,-1,70,72,74,76,78,80,-1,-1,-1,-1,-1,-1,-1,-1,-1,-1,-1,-1,-1,-1,-1,-1,-1,-1,-1,-1,-1,-1,-1,-1,-1,-1,-1,-1,-1,-1],"split_conditions":[4.18E-1,1.0912463E1,8.1E0,2.6646938E1,1.3649213E1,9.551971E0,1.53E1,1.0860682E1,7.105553E0,1.9119507E0,-5.922117E-3,9.543933E0,5.8E0,1.4E1,8.0305E1,3E0,1.9300503E0,1.072683E1,-3.6958978E-3,-7.2869393E-3,6E0,1.8885621E0,3.3664346E-2,5.6025786E0,1.692E0,6.2503333E0,1.4971729E-1,7.8793E1,1.67E1,9.554733E0,-1.9009434E-2,8.8263E1,1.8113092E-2,-3.1035898E-2,-3.2601338E-3,4E0,-7.5765103E-3,2.5308503E-2,1.7727886E0,1.1123506E1,2.6486857E-2,7.497051E-1,7.915639E-2,1.285E0,-2.3757746E-2,1.42E1,2.9832869E0,5E0,3.5839148E0,9.633983E0,9.241E1,-7.4063167E-3,3.5272934E-2,-1.3583439E-2,2.962782E-3,-2.2646178E-2,-3.8278995E-3,-6.4084157E-3,-2.6109723E-2,-6.919164E-3,1.6395142E-2,-8.39617E-3,6.1678626E-3,2.551186E-3,-1.969981E-2,1.601678E-2,-9.7685605E-3,2.401214E-3,-3.8185124E-3,1.0166409E-2,-2.2425218E-3,-9.216203E-3,3.135205E-3,-5.6102574E-3,1.1695906E-2,3.079158E-2,1.1231216E-2,4.125221E-3,2.7019233E-2,-1.2876351E-2,2.4846704E-3],"split_indices":[3,11,4,5,11,12,4,12,7,7,0,12,4,0,2,0,11,12,0,0,0,7,0,7,3,7,9,2,4,12,9,2,0,0,0,15,0,0,14,12,0,11,9,3,0,4,7,15,7,11,2,0,0,0,0,0,0,0,0,0,0,0,0,0,0,0,0,0,0,0,0,0,0,0,0,0,0,0,0,0,0],"split_type":[0,0,0,0,0,0,0,0,0,0,0,0,0,0,0,0,0,0,0,0,0,0,0,0,0,0,0,0,0,0,0,0,0,0,0,0,0,0,0,0,0,0,0,0,0,0,0,0,0,0,0,0,0,0,0,0,0,0,0,0,0,0,0,0,0,0,0,0,0,0,0,0,0,0,0,0,0,0,0,0,0],"sum_hessian":[6.954603E2,7.592176E1,6.195386E2,5.701858E1,1.8903181E1,9.616701E1,5.233715E2,5.102185E1,5.9967327E0,1.7050081E1,1.8530988E0,3.4936195E1,6.1230812E1,4.4639236E2,7.6979195E1,3.2334724E1,1.8687124E1,4.938224E0,1.0585089E0,1.7497385E0,1.53003435E1,3.2274918E1,2.6612747E0,3.486642E1,2.6364393E1,2.3897597E2,2.0741638E2,2.8211914E1,4.8767284E1,9.589919E0,2.2744804E1,1.728232E1,1.4048038E0,3.7728536E0,1.1653702E0,1.3332539E1,1.967805E0,2.2747955E0,3.0000124E1,3.2665836E1,2.2005858E0,2.2667458E1,3.6969357E0,2.3511902E2,3.8569477E0,9.024685E1,1.1716953E2,2.2647058E1,5.564856E0,3.7282528E1,1.1484755E1,5.0339913E0,4.5559278E0,1.3350441E1,9.394364E0,1.2530158E1,4.7521625E0,1.0081792E0,1.2324359E1,2.7349184E1,2.6509392E0,2.283642E1,9.829413E0,2.3712933E0,2.0296164E1,2.304618E0,1.3923179E0,1.4422871E2,9.089031E1,7.0223015E1,2.0023832E1,2.0230017E1,9.6939514E1,2.7575047E0,1.9889553E1,3.5202227E0,2.0446334E0,3.4593464E1,2.6890655E0,6.6684723E0,4.816282E0],"tree_param":{"num_deleted":"0","num_feature":"17","num_nodes":"81","size_leaf_vector":"1"}},{"base_weights":[6.629494E-3,-1.2074851E-1,4.8705243E-2,-2.0332046E-1,-7.407904E-2,2.9498774E-1,4.356512E-2,-1.2184925E-1,-3.8272E-1,-2.9646176E-1,-3.6402997E-2,-2.6927108E-2,2.5026733E-2,3.5613183E-2,2.0328502E-1,-1.6493592E-1,2.608801E-1,-4.3231952E-1,-2.7180763E-2,-4.3218425E-1,2.5911134E-1,5.546725E-3,-2.225793E-1,9.077367E-2,-9.591646E-3,4.3569278E-2,-1.2084286E-1,2.6538882E-1,-1.3303473E-2,1.0594702E-1,-2.427706E-1,2.3205362E-2,-1.9936736E-3,3.1733343E-3,-4.7024918E-1,-1.5239559E-2,1.2022461E-2,8.509707E-3,-5.1035357E-1,1.7941657E-2,-3.9320934E-4,2.564664E-2,-1.571073E-2,1.21228695E-2,-2.8755295E-1,1.123571E-2,-5.2492614E-3,1.0856246E-2,9.556356E-2,-1.6884576E-1,1.816353E-2,-4.7138263E-2,3.4146863E-1,-3.5032965E-3,2.6671413E-2,6.0622836E-3,-1.4848436E-2,-8.203226E-3,-2.5585283E-2,-2.850861E-2,-7.787691E-3,4.144668E-3,-5.101852E-3,-4.8744106E-3,-2.1294631E-2,1.1014311E-3,-1.056111E-2,2.629279E-3,1.0924278E-2,-1.3959626E-2,1.1274015E-3,6.9575007E-3,-7.88925E-3,1.980571E-3,2.3177214E-2],"categories":[],"categories_nodes":[],"categories_segments":[],"categories_sizes":[],"default_left":[0,0,0,0,0,0,1,1,0,1,0,1,0,1,0,0,0,0,0,0,0,0,0,0,0,0,1,0,0,0,0,0,0,0,0,0,0,0,0,0,0,0,1,0,0,0,0,0,0,0,0,0,0,0,0,0,0,0,0,0,0,0,0,0,0,0,0,0,0,0,0,0,0,0,0],"id":15,"left_children":[1,3,5,7,9,11,13,15,17,19,21,23,-1,25,27,29,31,33,35,37,39,41,43,45,-1,47,49,51,-1,53,55,-1,-1,-1,57,-1,-1,-1,59,-1,-1,-1,61,-1,63,-1,-1,65,67,69,-1,71,73,-1,-1,-1,-1,-1,-1,-1,-1,-1,-1,-1,-1,-1,-1,-1,-1,-1,-1,-1,-1,-1,-1],"loss_changes":[3.7957265E0,6.626601E-1,6.609429E-1,8.7319136E-1,9.438085E-1,7.2202706E-1,6.564388E-1,7.809131E-1,3.2660842E-1,1.3460641E0,7.7105683E-1,1.1682613E-1,0E0,6.263819E-1,7.867873E-1,8.866036E-1,3.189173E-1,3.4522676E-1,3.2709298E-1,7.238548E-1,1.0501233E-1,8.8621557E-1,6.181199E-1,1.19753346E-1,0E0,8.0784935E-1,6.286228E-1,5.439279E-1,0E0,7.754828E-1,6.6775227E-1,0E0,0E0,0E0,1.15309715E-1,0E0,0E0,0E0,1.7048836E-1,0E0,0E0,0E0,6.818927E-1,0E0,3.8922966E-1,0E0,0E0,7.317179E-1,9.580904E-1,4.8975956E-1,0E0,1.2964985E-1,6.439874E-1,0E0,0E0,0E0,0E0,0E0,0E0,0E0,0E0,0E0,0E0,0E0,0E0,0E0,0E0,0E0,0E0,0E0,0E0,0E0,0E0,0E0,0E0],"parents":[2147483647,0,0,1,1,2,2,3,3,4,4,5,5,6,6,7,7,8,8,9,9,10,10,11,11,13,13,14,14,15,15,16,16,17,17,18,18,19,19,20,20,21,21,22,22,23,23,25,25,26,26,27,27,29,29,30,30,34,34,38,38,42,42,44,44,47,47,48,48,49,49,51,51,52,52],"right_children":[2,4,6,8,10,12,14,16,18,20,22,24,-1,26,28,30,32,34,36,38,40,42,44,46,-1,48,50,52,-1,54,56,-1,-1,-1,58,-1,-1,-1,60,-1,-1,-1,62,-1,64,-1,-1,66,68,70,-1,72,74,-1,-1,-1,-1,-1,-1,-1,-1,-1,-1,-1,-1,-1,-1,-1,-1,-1,-1,-1,-1,-1,-1],"split_conditions":[8E0,3.51E-1,-1.3031107E-1,1.0442224E1,2.4154766E-2,-4.5919552E-1,5.593E0,1.4107231E0,5E0,1.1293906E0,5.656854E0,9.3101084E-2,2.5026733E-2,2.1483104E-1,1.282785E1,5.4124683E-2,1.9479437E0,9.430743E0,6.898451E0,4.18E-1,5E0,2.574305E-1,-5.4556034E1,7.9412264E-1,-9.591646E-3,8.601486E-1,1.1E1,2.340131E-2,-1.3303473E-2,5.115588E-1,-4.9054417E1,2.3205362E-2,-1.9936736E-3,3.1733343E-3,7.0948E1,-1.5239559E-2,1.2022461E-2,8.509707E-3,5.4812813E0,1.7941657E-2,-3.9320934E-4,2.564664E-2,-1.8780154E-1,1.21228695E-2,2.3032597E1,1.123571E-2,-5.2492614E-3,1.2209741E1,4.223658E0,1.04036845E-1,1.816353E-2,7.154302E-1,9.600583E0,-3.5032965E-3,2.6671413E-2,6.0622836E-3,-1.4848436E-2,-8.203226E-3,-2.5585283E-2,-2.850861E-2,-7.787691E-3,4.144668E-3,-5.101852E-3,-4.8744106E-3,-2.1294631E-2,1.1014311E-3,-1.056111E-2,2.629279E-3,1.0924278E-2,-1.3959626E-2,1.1274015E-3,6.9575007E-3,-7.88925E-3,1.980571E-3,2.3177214E-2],"split_indices":[1,3,14,11,10,9,3,14,0,14,7,10,0,10,9,10,14,12,6,3,0,5,9,8,0,5,15,10,0,5,9,0,0,0,2,0,0,0,7,0,0,0,9,0,10,0,0,11,7,9,0,11,12,0,0,0,0,0,0,0,0,0,0,0,0,0,0,0,0,0,0,0,0,0,0],"split_type":[0,0,0,0,0,0,0,0,0,0,0,0,0,0,0,0,0,0,0,0,0,0,0,0,0,0,0,0,0,0,0,0,0,0,0,0,0,0,0,0,0,0,0,0,0,0,0,0,0,0,0,0,0,0,0,0,0,0,0,0,0,0,0,0,0,0,0,0,0,0,0,0,0,0,0],"sum_hessian":[7.0612335E2,1.7486774E2,5.312556E2,6.19332E1,1.1293454E2,9.70824E0,5.2154736E2,4.374594E1,1.818726E1,1.5366298E1,9.756824E1,4.12185E0,5.5863895E0,4.9797763E2,2.3569721E1,3.9830933E1,3.915009E0,1.5771151E1,2.416109E0,1.2527913E1,2.838385E0,8.041837E1,1.7149866E1,2.667486E0,1.4543642E0,4.7456653E2,2.3411104E1,2.1199255E1,2.3704655E0,8.8097515E0,3.1021183E1,2.012179E0,1.9028301E0,1.072963E0,1.4698188E1,1.1177859E0,1.298323E0,1.3037641E0,1.1224149E1,1.8159983E0,1.0223868E0,2.3036597E0,7.8114716E1,1.7675233E0,1.5382343E1,1.4959953E0,1.1714907E0,2.9203616E2,1.8253038E2,2.1891638E1,1.5194674E0,4.224776E0,1.697448E1,6.832574E0,1.9771774E0,3.8598447E0,2.7161337E1,2.343958E0,1.235423E1,9.083835E0,2.1403143E0,3.648285E1,4.1631863E1,7.1978827E0,8.184461E0,2.789057E2,1.3130447E1,1.3630205E2,4.6228344E1,1.3594874E1,8.296763E0,1.4782844E0,2.7464912E0,5.2693663E0,1.1705113E1],"tree_param":{"num_deleted":"0","num_feature":"17","num_nodes":"75","size_leaf_vector":"1"}},{"base_weights":[4.1504335E-3,-7.2105974E-2,7.365745E-2,-1.5783964E-1,3.9041257E-3,5.3461898E-2,2.4440268E-1,-1.3595882E-1,-4.609843E-1,-2.7103193E-2,1.5722868E-1,4.0025073E-1,4.6304643E-2,1.5412422E-3,3.3949915E-1,-1.6635317E-1,1.3939822E-1,-5.5339015E-1,7.0410706E-3,-1.810768E-1,5.940904E-3,-8.139211E-2,2.6825562E-1,1.0809088E-3,2.7541265E-2,2.7987134E-1,3.5764437E-2,-1.3735532E-2,1.325286E-1,4.4563058E-1,6.390087E-2,-1.9429941E-1,-1.2501513E-2,2.9713723E-1,-9.007175E-2,-3.0753328E-2,-6.2196734E-3,1.0965549E-2,-2.1735862E-1,1.7060421E-1,-5.4160666E-2,1.4437635E-2,-2.626096E-1,3.6463875E-1,-2.7977284E-2,3.0255273E-2,-4.3913655E-2,5.1081073E-2,-1.10848635E-1,-3.924824E-3,2.2090784E-1,5.6073743E-1,1.5027332E-1,3.3703834E-1,-2.9519403E-1,-1.0216922E-2,1.7876273E-2,9.192908E-3,-1.1190041E-2,2.320715E-2,-1.1892281E-2,-1.5177119E-2,2.8085206E-3,-1.6924992E-2,-3.9229286E-3,3.0132867E-3,2.790328E-2,-5.7451995E-3,3.3208665E-3,1.0876307E-3,-2.0174932E-2,2.350659E-2,-2.753144E-3,2.0192958E-2,-1.0919643E-2,1.6249169E-2,-9.057532E-3,1.6453973E-3,7.685803E-3,-1.2921996E-2,5.1447353E-3,1.8320998E-2,1.5679336E-3,3.8337482E-3,3.452902E-2,1.6919384E-2,-9.499635E-3,4.544481E-3,2.7545217E-2,-1.7335244E-2,-5.4090586E-3],"categories":[],"categories_nodes":[],"categories_segments":[],"categories_sizes":[],"default_left":[1,1,1,0,0,0,0,1,1,0,1,0,0,1,0,1,0,0,0,0,0,0,0,0,0,0,1,0,0,0,0,0,0,0,0,0,0,0,0,0,0,0,0,1,0,0,0,0,0,0,0,0,1,0,0,0,0,0,0,0,0,0,0,0,0,0,0,0,0,0,0,0,0,0,0,0,0,0,0,0,0,0,0,0,0,0,0,0,0,0,0],"id":16,"left_children":[1,3,5,7,9,11,13,15,17,19,21,23,25,27,29,31,33,35,-1,37,39,41,43,-1,-1,45,47,-1,49,51,53,55,57,59,61,-1,-1,-1,63,65,67,-1,69,71,73,-1,75,77,79,-1,81,83,85,87,89,-1,-1,-1,-1,-1,-1,-1,-1,-1,-1,-1,-1,-1,-1,-1,-1,-1,-1,-1,-1,-1,-1,-1,-1,-1,-1,-1,-1,-1,-1,-1,-1,-1,-1,-1,-1],"loss_changes":[3.6732233E0,2.1542969E0,1.2370172E0,9.6767116E-1,8.417346E-1,7.892738E-1,8.785639E-1,1.2475858E0,6.361964E-1,7.509135E-1,8.107758E-1,3.5584414E-1,7.778003E-1,4.6032318E-1,7.71456E-1,5.6601405E-1,5.7286537E-1,1.5912008E-1,0E0,4.2640615E-1,1.2196296E0,7.61567E-1,5.97105E-1,0E0,0E0,1.4662114E0,6.95825E-1,0E0,1.78134E-1,5.813222E-1,9.597734E-1,6.924963E-1,9.28722E-1,9.3001866E-1,2.3287916E-1,0E0,0E0,0E0,3.8413703E-1,1.3748245E0,6.694535E-1,0E0,3.0471903E-1,7.1573377E-1,5.795104E-1,0E0,4.5290107E-1,5.1524127E-1,9.5361996E-1,0E0,1.6334358E-1,8.094554E-1,5.031504E-1,2.3676175E-1,4.1311383E-3,0E0,0E0,0E0,0E0,0E0,0E0,0E0,0E0,0E0,0E0,0E0,0E0,0E0,0E0,0E0,0E0,0E0,0E0,0E0,0E0,0E0,0E0,0E0,0E0,0E0,0E0,0E0,0E0,0E0,0E0,0E0,0E0,0E0,0E0,0E0,0E0],"parents":[2147483647,0,0,1,1,2,2,3,3,4,4,5,5,6,6,7,7,8,8,9,9,10,10,11,11,12,12,13,13,14,14,15,15,16,16,17,17,19,19,20,20,21,21,22,22,25,25,26,26,28,28,29,29,30,30,31,31,32,32,33,33,34,34,38,38,39,39,40,40,42,42,43,43,44,44,46,46,47,47,48,48,50,50,51,51,52,52,53,53,54,54],"right_children":[2,4,6,8,10,12,14,16,18,20,22,24,26,28,30,32,34,36,-1,38,40,42,44,-1,-1,46,48,-1,50,52,54,56,58,60,62,-1,-1,-1,64,66,68,-1,70,72,74,-1,76,78,80,-1,82,84,86,88,90,-1,-1,-1,-1,-1,-1,-1,-1,-1,-1,-1,-1,-1,-1,-1,-1,-1,-1,-1,-1,-1,-1,-1,-1,-1,-1,-1,-1,-1,-1,-1,-1,-1,-1,-1,-1],"split_conditions":[1.21E1,9.29E-1,8.153165E-1,2.6646938E1,2E0,-2.3295749E-2,7.6710016E-1,9E0,4.972146E0,-5.479587E-1,2.2712793E-2,1.3E1,1.23E1,8.0305E1,1.1652695E1,9.3008E1,7E0,7.331439E0,7.0410706E-3,1.8885621E0,-8.293609E-3,1.063E0,4.8989797E0,1.0809088E-3,2.7541265E-2,8.2824E1,1.113629E1,-1.3735532E-2,1.3333333E1,1.9E1,9.128609E-1,2.5360016E1,9.826771E-1,8.125E0,7.0621E1,-3.0753328E-2,-6.2196734E-3,1.0965549E-2,8.965167E-1,8.4534824E-1,1.0442224E1,1.4437635E-2,7.36462E-1,5.8247585E-2,5.0862515E-1,3.0255273E-2,3E0,1.9E1,1.3174326E1,-3.924824E-3,1.47E1,7.205286E-1,9.1381E1,8.2545E1,1.2666667E1,-1.0216922E-2,1.7876273E-2,9.192908E-3,-1.1190041E-2,2.320715E-2,-1.1892281E-2,-1.5177119E-2,2.8085206E-3,-1.6924992E-2,-3.9229286E-3,3.0132867E-3,2.790328E-2,-5.7451995E-3,3.3208665E-3,1.0876307E-3,-2.0174932E-2,2.350659E-2,-2.753144E-3,2.0192958E-2,-1.0919643E-2,1.6249169E-2,-9.057532E-3,1.6453973E-3,7.685803E-3,-1.2921996E-2,5.1447353E-3,1.8320998E-2,1.5679336E-3,3.8337482E-3,3.452902E-2,1.6919384E-2,-9.499635E-3,4.544481E-3,2.7545217E-2,-1.7335244E-2,-5.4090586E-3],"split_indices":[4,3,9,5,13,6,8,15,6,9,10,4,4,2,12,2,1,7,0,7,9,3,7,0,0,2,11,0,4,1,5,5,5,4,2,0,0,0,8,5,11,0,8,6,5,0,15,1,11,0,4,11,2,2,4,0,0,0,0,0,0,0,0,0,0,0,0,0,0,0,0,0,0,0,0,0,0,0,0,0,0,0,0,0,0,0,0,0,0,0,0],"split_type":[0,0,0,0,0,0,0,0,0,0,0,0,0,0,0,0,0,0,0,0,0,0,0,0,0,0,0,0,0,0,0,0,0,0,0,0,0,0,0,0,0,0,0,0,0,0,0,0,0,0,0,0,0,0,0,0,0,0,0,0,0,0,0,0,0,0,0,0,0,0,0,0,0,0,0,0,0,0,0,0,0,0,0,0,0,0,0,0,0,0,0],"sum_hessian":[6.9101245E2,3.294902E2,3.6152228E2,1.5433517E2,1.7515501E2,3.2445877E2,3.706352E1,1.4529626E2,9.038908E0,1.4637613E2,2.8778885E1,5.4503813E0,3.1900836E2,1.0715084E1,2.6348434E1,1.3120908E2,1.4087197E1,7.905489E0,1.133419E0,2.5071608E1,1.2130452E2,9.2231865E0,1.9555698E1,1.8761683E0,3.574213E0,1.2671018E1,3.0633737E2,3.093556E0,7.621528E0,1.8577412E1,7.7710214E0,1.10816925E2,2.039215E1,8.173677E0,5.91352E0,6.532575E0,1.3729137E0,1.6639915E0,2.3407616E1,3.194489E1,8.9359634E1,2.83637E0,6.386817E0,1.4580748E1,4.97495E0,5.887908E0,6.7831097E0,2.7795142E2,2.8385931E1,2.282758E0,5.33877E0,1.2721192E1,5.8562193E0,4.448666E0,3.3223553E0,1.09455376E2,1.3615493E0,1.0637049E1,9.755101E0,6.3300414E0,1.8436363E0,1.9668627E0,3.946657E0,1.1735518E1,1.1672098E1,2.5763643E1,6.1812468E0,5.9455112E1,2.990452E1,2.3961568E0,3.99066E0,1.1555969E1,3.0247781E0,1.1793683E0,3.7955816E0,1.4682815E0,5.3148284E0,2.3726125E2,4.0690174E1,1.6667671E1,1.1718259E1,2.492346E0,2.846424E0,3.026972E0,9.694221E0,3.7748392E0,2.0813804E0,2.7307255E0,1.7179403E0,1.9353678E0,1.3869874E0],"tree_param":{"num_deleted":"0","num_feature":"17","num_nodes":"91","size_leaf_vector":"1"}},{"base_weights":[6.480459E-3,-1.1142339E-1,3.5226233E-2,-1.3300349E-1,7.8926325E-2,-4.994965E-2,5.2425057E-2,1.4795683E-1,-1.6002928E-1,-1.7845535E-1,2.3726876E-1,2.6259018E-2,-2.280595E-1,3.579757E-1,4.43194E-2,2.9300556E-2,2.3207702E-2,-1.7429535E-1,1.2727812E-1,1.1841676E-2,-3.3196384E-1,3.7645736E-1,-1.5464878E-1,-2.4298608E-1,8.7134264E-2,-1.0677821E-1,-4.811541E-1,-3.224219E-3,4.3925032E-1,3.8477686E-1,3.9682332E-2,3.60112E-1,-1.6385783E-1,-2.9990306E-1,-1.2196697E-1,-1.4059964E-2,3.474641E-1,-1.9053595E-2,-6.172145E-3,2.4922479E-2,2.1880064E-3,2.3873707E-3,-1.4659633E-2,-4.890284E-3,-4.0757164E-1,-2.6809213E-1,1.3072215E-1,-2.2640204E-2,-2.8969103E-1,2.9211296E-3,-2.9064292E-2,1.790808E-1,2.6222011E-2,-9.986094E-4,2.42236E-2,-1.3175553E-1,5.1107943E-2,3.8321086E-3,2.2711623E-2,-2.4161143E-2,4.12177E-3,-1.8330438E-2,-2.4439357E-4,2.0069988E-2,-9.261708E-3,-1.5665417E-3,2.7023738E-2,-1.1827373E-2,1.31241E-2,-2.6968622E-3,-2.3128567E-2,-1.8573433E-2,-2.8296425E-3,2.0814441E-2,3.8852643E-3,-7.811026E-3,5.067142E-3,-4.87926E-3,-1.6649788E-2,1.9432985E-3,1.1824695E-2,1.896652E-3,-1.3649225E-2,1.9400293E-2,2.2266642E-3],"categories":[],"categories_nodes":[],"categories_segments":[],"categories_sizes":[],"default_left":[0,0,0,0,0,0,0,0,1,0,0,1,0,0,0,0,0,0,0,0,0,0,0,0,0,0,0,0,0,0,0,0,0,0,0,0,0,0,0,0,0,0,0,0,1,0,0,0,0,0,0,0,0,0,0,0,0,0,0,0,0,0,0,0,0,0,0,0,0,0,0,0,0,0,0,0,0,0,0,0,0,0,0,0,0],"id":17,"left_children":[1,3,5,7,9,11,13,15,17,19,21,23,25,27,29,-1,31,33,35,-1,37,39,41,43,45,47,49,-1,51,53,55,57,59,61,63,-1,65,-1,-1,-1,-1,-1,-1,67,69,71,73,75,77,-1,-1,79,-1,-1,-1,81,83,-1,-1,-1,-1,-1,-1,-1,-1,-1,-1,-1,-1,-1,-1,-1,-1,-1,-1,-1,-1,-1,-1,-1,-1,-1,-1,-1,-1],"loss_changes":[2.3611171E0,5.71489E-1,8.2286626E-1,9.57901E-1,6.346626E-1,1.2897547E0,1.1391289E0,6.0477823E-1,4.841895E-1,4.6790898E-1,5.7248956E-1,1.1215261E0,8.217472E-1,4.3726635E-1,7.037384E-1,0E0,6.797151E-1,6.7203116E-1,6.2927294E-1,0E0,2.8777122E-3,2.7235615E-1,1.03154615E-1,4.934774E-1,8.9423627E-1,3.0916545E-1,5.164139E-1,0E0,1.3030565E-1,2.5197643E-1,8.890303E-1,6.734371E-2,5.920062E-1,6.086457E-1,2.6501017E0,0E0,3.3039588E-1,0E0,0E0,0E0,0E0,0E0,0E0,4.4486633E-1,1.2021911E-1,1.187444E-1,7.261275E-1,2.665137E-1,2.056992E-2,0E0,0E0,2.3121834E-2,0E0,0E0,0E0,6.9151473E-1,9.1967905E-1,0E0,0E0,0E0,0E0,0E0,0E0,0E0,0E0,0E0,0E0,0E0,0E0,0E0,0E0,0E0,0E0,0E0,0E0,0E0,0E0,0E0,0E0,0E0,0E0,0E0,0E0,0E0,0E0],"parents":[2147483647,0,0,1,1,2,2,3,3,4,4,5,5,6,6,7,7,8,8,9,9,10,10,11,11,12,12,13,13,14,14,16,16,17,17,18,18,20,20,21,21,22,22,23,23,24,24,25,25,26,26,28,28,29,29,30,30,31,31,32,32,33,33,34,34,36,36,43,43,44,44,45,45,46,46,47,47,48,48,51,51,55,55,56,56],"right_children":[2,4,6,8,10,12,14,16,18,20,22,24,26,28,30,-1,32,34,36,-1,38,40,42,44,46,48,50,-1,52,54,56,58,60,62,64,-1,66,-1,-1,-1,-1,-1,-1,68,70,72,74,76,78,-1,-1,80,-1,-1,-1,82,84,-1,-1,-1,-1,-1,-1,-1,-1,-1,-1,-1,-1,-1,-1,-1,-1,-1,-1,-1,-1,-1,-1,-1,-1,-1,-1,-1,-1],"split_conditions":[7E0,1.27E1,-5.479587E-1,7.0342E1,9.846154E0,4.4001265E0,-4.8125163E-1,-4.400278E1,1.793573E0,1.29E1,8.342E1,7.2795594E-1,1.1333333E1,2.8596814E0,-1.3031107E-1,2.9300556E-2,9.448141E0,9.50478E0,6.8E0,1.1841676E-2,7.6071215E-1,6E0,8.170771E-1,-1.0432051E0,6.209063E-1,-7.4502087E-1,7.7884895E-1,-3.224219E-3,1.13E1,2E0,6.652176E-1,6.4911E1,4E0,9.2726E1,9.558036E0,-1.4059964E-2,7.7841E1,-1.9053595E-2,-6.172145E-3,2.4922479E-2,2.1880064E-3,2.3873707E-3,-1.4659633E-2,1.5E1,7.1561146E-1,8.1645E1,6.947315E-1,2.8398933E0,9.518018E0,2.9211296E-3,-2.9064292E-2,1E1,2.6222011E-2,-9.986094E-4,2.42236E-2,-5.8446966E-2,7.2809726E-1,3.8321086E-3,2.2711623E-2,-2.4161143E-2,4.12177E-3,-1.8330438E-2,-2.4439357E-4,2.0069988E-2,-9.261708E-3,-1.5665417E-3,2.7023738E-2,-1.1827373E-2,1.31241E-2,-2.6968622E-3,-2.3128567E-2,-1.8573433E-2,-2.8296425E-3,2.0814441E-2,3.8852643E-3,-7.811026E-3,5.067142E-3,-4.87926E-3,-1.6649788E-2,1.9432985E-3,1.1824695E-2,1.896652E-3,-1.3649225E-2,1.9400293E-2,2.2266642E-3],"split_indices":[1,4,9,2,12,7,9,9,14,4,2,11,4,7,14,0,12,12,4,0,5,1,5,9,5,9,5,0,4,15,14,2,0,2,12,0,2,0,0,0,0,0,0,1,11,2,5,10,12,0,0,0,0,0,0,14,14,0,0,0,0,0,0,0,0,0,0,0,0,0,0,0,0,0,0,0,0,0,0,0,0,0,0,0,0],"split_type":[0,0,0,0,0,0,0,0,0,0,0,0,0,0,0,0,0,0,0,0,0,0,0,0,0,0,0,0,0,0,0,0,0,0,0,0,0,0,0,0,0,0,0,0,0,0,0,0,0,0,0,0,0,0,0,0,0,0,0,0,0,0,0,0,0,0,0,0,0,0,0,0,0,0,0,0,0,0,0,0,0,0,0,0,0],"sum_hessian":[6.9449335E2,1.3556853E2,5.589248E2,1.2203463E2,1.3533894E1,9.357876E1,4.6534607E2,1.031589E1,1.11718735E2,5.106456E0,8.427438E0,6.613419E1,2.7444567E1,1.0910243E1,4.5443582E2,1.4670067E0,8.848884E0,1.0680857E2,4.9101663E0,1.23165E0,3.874806E0,6.2479434E0,2.1794949E0,1.1643706E1,5.4490482E1,1.9514997E1,7.9295692E0,1.793635E0,